dense/kernel:0
(784, 128)
[[-3.78398113e-02 -1.51439160e-02  6.22174665e-02 -4.46711443e-02
   3.31527665e-02 -1.13974884e-02 -7.26034194e-02  5.15712425e-02
   1.47496536e-02 -1.92230232e-02 -4.87317145e-03 -4.14475799e-03
  -3.38622704e-02 -7.07641169e-02  5.79217300e-02  2.22738162e-02
  -7.72036761e-02  7.74981454e-02  6.61453977e-02 -7.38554597e-02
  -6.14208765e-02 -2.96568871e-02 -5.44691235e-02  2.76650265e-02
  -8.07960331e-02  4.31486219e-02  7.42601380e-02 -6.85686395e-02
   2.32964605e-02 -7.49545917e-02  8.73950124e-03  1.72850788e-02
   1.86248496e-02 -4.25809436e-02  3.21100876e-02  3.29186991e-02
  -5.37375584e-02  7.82659277e-02  7.67634585e-02  4.85663489e-02
   6.89661726e-02 -7.31736496e-02  3.94833907e-02  7.56614432e-02
   1.16863474e-02 -3.52874659e-02  4.90734652e-02  5.86163923e-02
  -5.14633544e-02 -7.70446733e-02 -1.69422850e-02 -1.61580220e-02
  -5.35514653e-02 -2.88181081e-02  6.75834343e-02  6.08056262e-02
  -6.64468631e-02  2.04241872e-02  6.97104558e-02 -6.97529390e-02
  -6.92064613e-02 -7.88662881e-02  5.93415424e-02  6.82442635e-03
   6.49403855e-02  7.06907287e-02  2.55912393e-02 -2.50514150e-02
  -5.88492677e-02 -5.85087612e-02 -7.47847632e-02 -1.36679262e-02
   6.17500767e-02 -5.16493097e-02  4.26859111e-02  1.04484707e-03
  -2.60543935e-02 -5.41361198e-02  1.74416602e-02 -2.35621706e-02
   4.44471911e-02  3.12887877e-02 -3.45213711e-03 -7.45350495e-02
   7.12946430e-02 -7.73897767e-03  6.77637383e-02 -6.15696684e-02
   5.36087081e-02  6.37183264e-02 -1.76414773e-02 -4.34900783e-02
   5.07912263e-02  1.61200166e-02 -4.25409526e-02 -1.49753317e-02
  -6.70475513e-02 -2.69572809e-02 -2.02580541e-03  3.61950547e-02
   6.73658922e-02  1.46643072e-02  6.02223724e-03  4.68481705e-02
  -4.33474742e-02 -3.59158069e-02  2.03299895e-02 -6.58806339e-02
  -1.95676126e-02 -4.53130603e-02 -3.87851074e-02 -4.69124131e-02
   3.48891541e-02  1.54343024e-02  7.90413544e-02 -7.03217760e-02
   4.61354181e-02  6.75996020e-02  6.43296912e-02  6.94283620e-02
   9.60268080e-03  5.12866601e-02  4.89197299e-02  9.58392769e-03
   3.88040766e-02 -1.97479241e-02  7.71080926e-02  7.55412057e-02]
 [-2.56398581e-02  1.00117475e-02 -7.76514560e-02  5.52561507e-02
   3.80372182e-02 -5.28715327e-02  6.97694719e-03 -3.88877839e-03
  -7.61759803e-02  4.30492014e-02  5.75334206e-02  2.12905183e-02
  -1.11669749e-02  3.65385413e-03 -4.92744520e-02 -7.61070177e-02
   6.43614605e-02 -5.51897660e-02  4.80256006e-02  5.13369963e-02
   4.17075306e-02  7.63584748e-02  2.47916654e-02 -2.50116549e-02
  -2.09419467e-02 -3.85759436e-02  1.68405473e-02  4.82910946e-02
   3.22180688e-02 -5.60710505e-02 -5.68818301e-02 -7.23135397e-02
  -6.24022186e-02  4.31691930e-02 -5.69478422e-03  7.34594688e-02
  -3.24802101e-03 -2.45225690e-02 -7.46981874e-02  6.70742318e-02
  -5.05056642e-02  5.54095283e-02  4.13742736e-02 -2.11744756e-03
   3.79812941e-02  2.44598165e-02  5.44110313e-02  7.41868094e-02
  -7.29388744e-03 -5.42505458e-02 -4.65449467e-02  2.29124799e-02
   6.56505451e-02  4.95793000e-02 -3.44077460e-02  4.48859558e-02
  -7.17832893e-02 -1.40581504e-02  2.09518522e-02 -2.66679041e-02
   4.98071983e-02  6.36243820e-03 -8.55126232e-03  8.37377459e-03
  -1.05554610e-03  1.26969442e-02  7.14600012e-02  2.12648362e-02
   4.09523100e-02  7.97308609e-02  2.83646286e-02 -6.67640865e-02
  -2.09750533e-02  6.79560825e-02  4.13298309e-02  6.96677491e-02
  -3.51313874e-02  5.91620877e-02 -6.14855438e-03  6.99014887e-02
  -3.48911285e-02 -1.20553225e-02 -7.84026682e-02 -6.24276288e-02
   6.89472258e-03  2.59435475e-02 -5.25892489e-02 -6.46790862e-02
   5.90536967e-02 -2.56839134e-02  3.48454863e-02  1.08610243e-02
   3.65287364e-02 -1.50950551e-02 -3.06397676e-04 -4.70964760e-02
   2.81091481e-02 -4.92275581e-02  3.86013165e-02  8.77916813e-04
  -3.70335802e-02  3.88611108e-03  7.41950944e-02  6.40338883e-02
   1.23973936e-03  7.87914470e-02 -3.22050750e-02  7.31854513e-02
  -6.13550693e-02 -5.08503318e-02  8.06629434e-02  3.73846069e-02
   7.01427087e-02 -5.90561703e-02  4.86265197e-02  3.75723839e-03
   6.87885210e-02  2.85395980e-02 -8.01072791e-02  4.87310663e-02
  -4.25465405e-02 -6.71874732e-03  2.20404789e-02  4.99051288e-02
   4.94862571e-02  6.82968274e-02 -6.26871884e-02 -3.30113098e-02]
 [ 6.05342910e-02  6.96082041e-02 -5.54803051e-02  7.10149482e-02
  -6.02008998e-02 -7.17423260e-02 -5.65782189e-04  2.12569460e-02
   6.92636594e-02 -4.12358344e-03 -6.31021857e-02 -1.65860355e-02
   3.01377699e-02  3.35164815e-02  4.14156541e-02  3.08293104e-02
   2.04090402e-02 -7.00953007e-02 -3.43757793e-02 -5.91001064e-02
   3.01627070e-03 -4.27499823e-02 -4.52661850e-02  3.23586166e-03
   1.25993490e-02  6.46224692e-02 -6.39472753e-02  2.40128338e-02
  -8.53109360e-03 -6.13034368e-02 -5.18357307e-02  7.02237412e-02
   3.31124291e-02  4.30045500e-02 -7.13954344e-02 -7.02045038e-02
   6.43134192e-02 -6.78347051e-03 -7.94305578e-02  4.92338017e-02
  -6.76385090e-02  3.70478109e-02  1.23059452e-02 -2.49176696e-02
   7.43336156e-02 -8.50289315e-03 -7.13041201e-02 -6.71385750e-02
   2.07951143e-02  6.31333888e-03  6.00411072e-02  3.90457287e-02
   5.33308610e-02 -5.65692857e-02  7.62673691e-02  3.38139236e-02
   7.76173994e-02  7.46496096e-02 -8.91907513e-03 -2.55779773e-02
   4.79205325e-02 -8.64145160e-03  1.36031210e-03 -4.99695279e-02
  -3.24490666e-02 -8.07349235e-02  6.61559179e-02  9.56081599e-03
  -8.03966597e-02  7.69212469e-02 -3.82157862e-02  7.56910443e-03
  -5.04909456e-03  5.29599115e-02  6.45855740e-02  5.51224276e-02
   7.15068653e-02  5.41759357e-02 -2.68946625e-02 -3.87918353e-02
  -4.54284325e-02 -7.38632157e-02 -3.90088707e-02  2.15612203e-02
   3.97950858e-02  7.56308511e-02  1.64649785e-02 -1.33267343e-02
   7.21180961e-02 -1.31339580e-02  4.09518704e-02 -6.43238649e-02
   5.41106686e-02  2.76617184e-02 -6.07808977e-02 -4.22625989e-02
  -6.96198940e-02 -7.63942525e-02 -1.43172294e-02 -6.38147667e-02
  -6.85485080e-02  2.60233879e-03  4.80293557e-02  5.67593649e-02
   4.84068021e-02  7.57285133e-02 -5.14291823e-02  6.29933253e-02
   5.80792800e-02  6.76882043e-02  4.59851325e-03  2.41314098e-02
  -3.97184901e-02 -5.34363240e-02  3.92223075e-02  2.22640708e-02
   1.96686164e-02  1.19672343e-02  7.67598823e-02  7.80989602e-02
   3.27439755e-02  1.95361674e-03  2.10285634e-02 -3.66689377e-02
   1.52736157e-03  5.25730774e-02  8.92143697e-03  7.64675513e-02]
 [-4.49576415e-02  4.62223664e-02 -6.66356459e-02 -1.56611204e-02
  -3.58053856e-02 -6.10080063e-02  2.59627700e-02  5.00521734e-02
   5.73068783e-02  6.56081215e-02 -6.74728006e-02 -4.49199975e-03
   4.10362333e-03 -1.95963308e-02 -4.13784683e-02  6.35526851e-02
  -5.59561849e-02 -7.66988322e-02  8.43780488e-03  8.10007080e-02
   1.13210082e-03 -4.05825041e-02  1.99362561e-02  5.59912249e-02
  -8.03525150e-02 -8.60115141e-03  1.92763582e-02 -2.06492096e-03
   1.40801370e-02  2.83952802e-02 -6.23849481e-02  2.47549936e-02
   6.83035925e-02 -6.09939843e-02 -5.73903881e-02 -6.20121285e-02
   2.38243192e-02  4.74463478e-02  6.86873496e-03 -4.25486304e-02
  -4.23823595e-02  6.60868362e-02 -4.58650328e-02 -7.55454972e-02
   2.98953131e-02 -1.98645741e-02  2.37000734e-02  5.29253110e-02
  -2.45693289e-02 -4.86902818e-02  7.56055862e-03  1.21564195e-02
  -6.28607720e-02  7.73593858e-02  4.56185713e-02 -5.33859655e-02
   4.96081263e-03 -7.74737373e-02 -7.44281486e-02  3.80209312e-02
   5.21406755e-02 -3.10756415e-02 -4.45822440e-02  3.90841737e-02
   1.88994557e-02 -3.69714648e-02 -7.02143461e-02 -4.85759154e-02
   5.17611131e-02  7.13033900e-02  6.08652905e-02 -6.37325346e-02
   2.14341283e-02 -6.54169619e-02  7.30486289e-02 -1.65577978e-02
   1.17628500e-02 -6.56064227e-02 -7.64123499e-02 -3.85542065e-02
  -1.16459280e-02  2.39804611e-02 -5.30783348e-02  1.85134634e-02
   4.93692234e-02  2.72484943e-02  7.25004897e-02 -1.04897916e-02
   3.53348851e-02 -7.42098168e-02 -1.30287930e-02  3.85162309e-02
  -2.81202681e-02 -6.25033379e-02 -8.08692276e-02 -3.50685753e-02
   2.51486897e-03  6.46742955e-02 -6.08124547e-02 -2.27867067e-02
  -2.09293775e-02 -2.32696794e-02 -6.65512905e-02  8.97987187e-03
   2.23418698e-02 -4.90292422e-02  1.32096261e-02 -7.09686428e-03
  -5.00444844e-02  3.58528569e-02  8.62782449e-03  1.33520737e-02
   2.08188593e-02 -6.72598854e-02 -2.60210745e-02 -2.75523774e-02
  -1.90380923e-02 -4.68644500e-03 -6.88605532e-02  1.73264965e-02
   4.73262593e-02  2.10568756e-02  7.06507191e-02 -7.04727322e-02
  -6.60233349e-02  1.59464031e-02 -7.31726885e-02  4.46245894e-02]
 [ 4.23022583e-02 -1.68590546e-02 -6.59937263e-02  1.78112313e-02
   4.88547757e-02  5.80371544e-02  5.35100177e-02  7.44734183e-02
   4.23086211e-02  5.34595624e-02 -7.04165101e-02  1.82051361e-02
  -2.90628746e-02  8.49148631e-03 -1.18182749e-02 -3.08808088e-02
   7.43289068e-02 -4.97743860e-02 -3.93170640e-02  3.75158936e-02
  -2.76487209e-02  1.27553865e-02  5.88765815e-02  7.72943571e-02
   7.99808875e-02 -2.77020782e-03 -5.63835204e-02 -6.48851246e-02
  -7.12876245e-02 -3.62658501e-03 -5.45034483e-02  1.04907975e-02
   6.65431842e-02  7.72909299e-02 -1.68133527e-02  7.27747753e-02
   6.03786036e-02  1.57433301e-02 -7.93920755e-02  3.81342545e-02
   7.08991215e-02 -3.46365385e-02  4.79112938e-02  2.31403038e-02
   7.88742378e-02  5.38197681e-02  4.49962392e-02  7.84698948e-02
   3.20436433e-02  2.08685398e-02 -5.86740673e-02 -4.00884114e-02
   5.71492985e-02  7.67162219e-02  3.76318470e-02 -7.12402090e-02
   4.17065620e-02  6.42592236e-02 -2.05298662e-02 -6.29680753e-02
   3.78198922e-04 -6.11545518e-02 -3.81308533e-02  1.64395869e-02
  -7.33364969e-02  1.46634206e-02 -9.01211053e-03 -7.24161491e-02
  -2.89133303e-02 -2.43451782e-02 -2.13616267e-02  7.09896162e-02
  -3.95215303e-02 -7.11770505e-02 -5.16564399e-03 -6.42500520e-02
  -6.37608469e-02 -3.06937695e-02 -4.40013409e-02 -3.46401557e-02
  -4.67767566e-02 -1.79115608e-02 -7.61989504e-02 -2.99683101e-02
   4.07745913e-02 -4.35913689e-02  7.37360492e-02  4.68671396e-02
  -5.01750186e-02  2.59453058e-02  5.49493730e-03  4.19525653e-02
   4.57213446e-02 -3.55096422e-02  1.46431550e-02 -3.28680500e-02
   4.41971496e-02  1.14946812e-03  2.62611434e-02 -3.43254954e-03
   5.40972725e-02 -5.07798418e-02 -1.08002871e-02  3.14970613e-02
   6.51416853e-02 -7.41967410e-02 -5.37809730e-02 -2.77558565e-02
   1.32765174e-02  4.60500792e-02  7.80180171e-02 -7.05116987e-03
  -5.61582297e-02 -2.61092000e-02  2.81674489e-02 -1.87971964e-02
  -7.39251375e-02  7.58706853e-02 -6.20912015e-02 -1.98867917e-02
   7.36651793e-02 -4.18681726e-02 -5.36576323e-02 -2.41054222e-02
  -2.18089223e-02 -6.12634644e-02 -6.37995824e-02  3.80246118e-02]
 [ 6.01702705e-02 -7.84035400e-02 -7.90441632e-02 -3.92862968e-02
  -2.26005949e-02  4.29345444e-02 -7.08053708e-02 -5.97698092e-02
  -7.95542449e-02  5.83309904e-02 -3.41569893e-02  7.16913268e-02
   1.51923448e-02  4.47843447e-02  3.33582759e-02  2.40216702e-02
   5.61830029e-02 -7.75422305e-02 -7.12076798e-02 -5.78686632e-02
   2.58548781e-02  2.86632031e-03 -4.18738388e-02 -5.26518300e-02
  -4.69560921e-03 -5.09367734e-02  9.33244824e-04 -5.95384873e-02
  -6.29474595e-02 -8.06124508e-03 -4.17072214e-02 -1.51107907e-02
  -4.61109392e-02  7.07842037e-02  2.92191654e-02 -2.49203779e-02
  -4.34914678e-02 -6.67229295e-04  1.39441490e-02 -6.51558191e-02
   3.02793458e-02 -4.08486389e-02 -1.27984583e-03  3.04789618e-02
   1.62035823e-02  7.01281056e-02  4.33590189e-02 -2.03788728e-02
   1.78740844e-02 -3.25595662e-02  3.13675553e-02  7.42096975e-02
   1.71056911e-02  9.38669592e-03  7.78543130e-02  8.08512494e-02
  -6.71081766e-02  5.64835891e-02 -5.00070453e-02 -6.87676296e-02
   6.32889792e-02 -2.20317394e-03  1.59119964e-02  8.92981142e-03
  -6.02819473e-02  1.10150799e-02  7.79905245e-02 -7.45373219e-03
  -4.69590761e-02  7.43680671e-02  7.39079043e-02  4.56372723e-02
   6.42690435e-02 -3.16720530e-02 -1.68312415e-02 -3.55487652e-02
  -3.16835232e-02 -5.23470379e-02  2.20054388e-02 -4.24251705e-03
  -4.68723066e-02 -5.42481467e-02  6.09990135e-02 -3.75836343e-03
  -5.52562922e-02 -5.83360493e-02 -3.48008387e-02 -7.27246329e-02
   1.91787183e-02 -2.24467777e-02 -3.86803523e-02  2.05360726e-02
   2.27683112e-02  5.86859956e-02 -4.96471003e-02  6.71642497e-02
   5.81968799e-02  5.02030030e-02  3.80670577e-02 -7.66563639e-02
  -6.71489537e-03  2.12046206e-02 -6.76784664e-03  9.60533321e-03
   3.66237238e-02  4.25832644e-02 -6.26261756e-02 -6.61595166e-02
  -5.98622672e-02 -6.40041679e-02  4.66139242e-02  3.44434381e-03
  -7.83844367e-02  1.39784217e-02 -3.26500088e-03  4.80140373e-02
   3.56745049e-02  4.16635722e-03 -4.29430939e-02 -5.30155748e-03
  -9.20605659e-03  3.37666273e-02  3.75620723e-02 -2.36973166e-03
  -3.52275185e-02  2.75287256e-02 -2.41624713e-02 -3.58088650e-02]
 [-2.22531706e-03 -6.97573274e-02  7.02989623e-02  4.33907136e-02
   6.53095320e-02  5.30481115e-02 -2.32771263e-02  7.03543797e-02
  -2.91466080e-02  1.63435340e-02 -2.84382664e-02  1.27104670e-02
   1.57688186e-02 -5.23093492e-02  8.03443566e-02 -6.48063198e-02
   3.34697217e-02 -7.25346804e-03 -4.14302386e-02 -7.81498626e-02
  -4.69363146e-02 -3.84855568e-02 -5.23843616e-03  7.87946209e-02
  -3.90220992e-02 -6.35810643e-02 -4.89913970e-02 -1.19895115e-02
  -9.08169150e-03  6.99053034e-02  7.58647099e-02  3.87024879e-03
  -6.74941242e-02 -2.82413810e-02  5.57199195e-02  5.16218171e-02
  -2.52857804e-03  3.96953225e-02  1.65060163e-03  7.65548423e-02
   2.28699371e-02  3.52883339e-02  3.09516415e-02 -6.47517592e-02
  -7.36828670e-02  7.29775801e-02  3.30880657e-02  6.52995184e-02
  -3.06630395e-02  2.59033218e-02 -7.97783211e-02  6.75294027e-02
  -4.89462055e-02  2.07962096e-03  2.88773254e-02 -9.49278474e-03
   7.10430369e-02 -5.10841087e-02 -6.09517097e-02 -4.84275110e-02
  -4.37452458e-02  3.81334126e-03 -5.16735613e-02  6.39705136e-02
  -5.25638014e-02 -2.16929503e-02 -4.63327691e-02 -7.39659220e-02
  -5.05601391e-02  7.81729892e-02  3.17074433e-02  3.44385728e-02
   6.65815398e-02  3.87514979e-02  5.40868938e-03  5.20771667e-02
  -6.86824694e-02 -6.57423139e-02  2.17586830e-02  5.98653182e-02
   4.60576788e-02  7.37079754e-02 -5.79712316e-02 -5.33551648e-02
  -6.71837851e-02  5.02461866e-02  1.27276555e-02  5.47429100e-02
   7.84902200e-02 -3.49842981e-02 -5.17929941e-02  4.92842123e-02
   4.48396802e-03 -6.80663511e-02  7.48177096e-02 -2.14197598e-02
  -3.73255499e-02 -3.00469622e-02 -1.97947621e-02 -4.33735810e-02
   5.68069592e-02 -3.94384116e-02 -5.87095097e-02  7.08295628e-02
  -7.77157694e-02  1.91913098e-02  1.40582025e-03 -7.43969381e-02
  -3.77337821e-02  8.07448253e-02  2.89485678e-02 -4.09801006e-02
  -7.65925646e-02  3.21088135e-02 -5.62842377e-02  1.84684992e-03
   2.53418833e-03  5.97298071e-02  5.00028059e-02  4.52290401e-02
  -2.62564421e-02  5.58862612e-02 -2.67799869e-02 -4.76180874e-02
  -2.69798674e-02 -7.26800784e-02 -5.01982048e-02  2.62683183e-02]
 [-6.81779087e-02 -7.07621649e-02 -2.51515955e-03  3.99357378e-02
  -4.26288471e-02 -3.30069214e-02  2.89300382e-02  6.35023788e-02
   5.30201942e-03  6.74321726e-02  4.32833731e-02 -1.66174024e-02
   6.63331375e-02  4.75497469e-02 -7.62763843e-02 -5.97459488e-02
  -6.14035875e-02 -7.93384463e-02  7.78970048e-02 -5.28543368e-02
  -6.61943853e-02 -3.27569917e-02  4.53148708e-02 -2.23517418e-05
   5.74561134e-02 -1.28981397e-02 -1.58299506e-03 -1.32912397e-03
   3.79590318e-02 -3.63631770e-02 -3.00569199e-02  1.96261108e-02
  -1.68877691e-02 -7.00994432e-02 -5.53654954e-02  3.94159779e-02
  -7.21820816e-02 -7.76021406e-02 -3.44750248e-02 -4.08162288e-02
   4.07866612e-02 -6.35940358e-02 -6.47188723e-02  3.29926088e-02
   3.33901048e-02 -4.41095792e-02 -4.54852656e-02 -3.31245549e-02
  -4.53578457e-02  4.51526046e-03  4.19411138e-02  1.63543597e-02
   6.93780258e-02 -2.72571780e-02  7.05543384e-02 -6.97657168e-02
   4.86227944e-02  1.74357370e-02 -1.74151435e-02  2.47630998e-02
   6.72823414e-02 -6.92785084e-02 -4.60805781e-02  5.57940677e-02
  -4.31823656e-02  5.92643544e-02 -3.74029204e-02  7.76043460e-02
  -4.22652662e-02 -7.43533075e-02  3.78676504e-03  6.15499839e-02
  -7.79206231e-02  2.11935192e-02 -4.86315712e-02  3.20226178e-02
  -6.88861161e-02  5.06757945e-03  8.71225446e-03  5.04787490e-02
   1.66640803e-02  2.99015343e-02  1.05206519e-02  6.65471181e-02
   3.26366499e-02 -6.47081360e-02  6.56534508e-02 -7.55410492e-02
   6.89333156e-02  8.10529664e-02  1.73399746e-02 -1.47628188e-02
  -3.76006179e-02 -4.51683104e-02  4.83202562e-02  5.43038025e-02
  -3.80123407e-03 -6.02158085e-02  5.02302274e-02 -1.35079399e-02
  -4.79216613e-02 -5.37578836e-02 -5.74007146e-02 -9.51106101e-03
  -2.00571418e-02  5.02474979e-02 -3.40520963e-02  3.92337143e-02
  -1.97325870e-02  3.43443379e-02 -3.36445235e-02 -4.31529135e-02
  -2.85711400e-02 -1.37351081e-02 -5.77633083e-03  1.44112855e-03
   3.53183299e-02 -3.64079066e-02  8.99320096e-03 -5.30667305e-02
   2.93307826e-02  6.87335432e-03 -7.25583881e-02  3.16128954e-02
  -2.72000544e-02  6.56867698e-02  2.71847546e-02  7.96719566e-02]
 [-6.88990951e-02  2.95308977e-02 -4.27227467e-03 -7.58628324e-02
  -6.78589866e-02  3.00943777e-02  7.11105242e-02 -4.61615473e-02
  -6.72483221e-02 -2.90936418e-02 -1.71712860e-02  6.10713735e-02
  -3.83954607e-02 -7.31803998e-02  2.64877081e-02  6.16678074e-02
   6.21402487e-02 -2.75989622e-02  7.58373663e-02  3.18561196e-02
  -1.56014413e-02  5.56182861e-03  5.50817177e-02 -5.11925668e-03
   1.85385421e-02 -4.90239263e-03 -4.67546917e-02 -5.27179837e-02
   3.30078676e-02 -2.78450064e-02  4.92057279e-02  1.37533024e-02
  -8.09885487e-02  3.70970890e-02  9.11585987e-03  5.27206585e-02
  -2.51031630e-02 -7.55590275e-02  2.96019837e-02  5.51605299e-02
  -7.93737397e-02  3.81954834e-02  6.00309595e-02 -6.98790997e-02
   7.64504820e-03  2.45356560e-03 -5.99847361e-02 -6.33248091e-02
   7.12480024e-02  9.20414180e-03 -6.24331087e-03 -5.19654900e-02
  -4.03552428e-02 -2.25351155e-02  3.90191227e-02 -5.32415286e-02
   1.66480914e-02  6.59291968e-02  4.11444381e-02 -1.17903948e-03
  -6.18393794e-02  5.51628545e-02  7.36474246e-03 -2.74408609e-03
   1.00984052e-02  4.94621694e-03 -9.04197246e-03 -1.53522491e-02
   3.25564146e-02 -3.73991132e-02  6.63551614e-02  4.85568717e-02
   3.74731943e-02  4.39702049e-02 -5.90883307e-02  1.89309940e-02
  -5.59012219e-02 -5.21472543e-02 -1.45833939e-03  5.01051918e-02
  -6.07719421e-02  3.54916975e-02  3.43266651e-02 -6.27216846e-02
   2.65350863e-02  7.31613562e-02  7.98296109e-02  7.90950730e-02
   4.45417687e-02  5.70680946e-03 -4.82940972e-02 -3.46246064e-02
  -5.12318537e-02 -6.04936257e-02  8.05284902e-02 -6.00501969e-02
   3.96591797e-02 -2.39494219e-02 -3.37218195e-02 -2.24938840e-02
   5.35053387e-02 -2.29745395e-02 -1.02194622e-02  5.18178269e-02
   2.18549445e-02  6.67335913e-02 -1.96521804e-02 -5.17481863e-02
   1.97463781e-02  2.87295803e-02 -3.83689292e-02 -1.83065012e-02
   6.62820041e-03  6.17559776e-02  6.18523136e-02  7.95014277e-02
   1.31209046e-02 -1.66269168e-02 -2.81927288e-02  4.83129546e-02
   2.84386352e-02  3.27477455e-02 -6.32648394e-02  3.46277207e-02
  -1.84792355e-02 -8.29864293e-03 -2.31593847e-03 -1.44773871e-02]
 [-8.12423229e-03 -1.63215399e-03  7.71889165e-02  1.20382756e-03
  -9.91153717e-03  6.97315857e-02  4.47539315e-02 -9.60579515e-03
   7.69071653e-02 -6.91323504e-02 -4.38100100e-02 -2.70219892e-03
  -5.79973385e-02  7.31647387e-02 -2.03046910e-02 -2.53146142e-03
   8.62261653e-03 -3.81613299e-02 -2.13663056e-02  5.68596348e-02
   7.97711983e-02  3.68316695e-02  2.94030905e-02  5.97153530e-02
   3.59562784e-02  7.65494630e-02 -7.71107003e-02  7.25868717e-02
  -5.84888831e-02  4.25360575e-02  7.87337348e-02  4.48765382e-02
   5.26006594e-02 -4.07132693e-02  7.44622722e-02 -3.25267874e-02
   4.26022932e-02 -6.54937774e-02 -4.03609276e-02 -5.60875311e-02
   5.68192080e-02  4.56206724e-02 -3.48084942e-02  5.06385341e-02
   7.68839791e-02  2.19021738e-03  1.15254745e-02  7.87359253e-02
  -7.18272626e-02  4.24218699e-02 -3.62395309e-02 -4.99078780e-02
  -5.32439351e-03 -2.85346881e-02  6.85338452e-02 -7.50772730e-02
  -2.05993652e-03 -6.25260398e-02 -7.25758299e-02 -6.05610013e-02
   6.60572723e-02  2.63266787e-02  3.22388411e-02 -6.32253736e-02
  -2.82906555e-02  5.02636507e-02  3.66463140e-02  1.09660923e-02
  -3.56486440e-03  4.84062731e-03 -1.55109242e-02  7.06648901e-02
  -7.07598850e-02 -4.88752723e-02 -7.35480040e-02  6.64481595e-02
  -2.91834474e-02  5.77471182e-02 -1.45447254e-03 -7.93826357e-02
   2.70104259e-02 -5.60850725e-02  2.43635327e-02 -7.66880959e-02
   6.52523115e-02 -2.94425227e-02  2.68017426e-02 -9.84195620e-03
  -7.26076216e-02 -5.75617626e-02  7.53783435e-03  3.08316126e-02
  -4.52804342e-02 -5.29624969e-02  7.89335594e-02 -5.43853901e-02
  -7.65815824e-02 -7.42292330e-02  6.92968294e-02  3.60693932e-02
   2.02739611e-02 -4.92583215e-03  5.47333807e-03 -4.85527068e-02
  -3.81959267e-02  6.73387274e-02 -1.64100975e-02 -2.28708461e-02
   5.03884926e-02 -4.51075882e-02 -9.59458202e-03 -6.14459962e-02
   2.97082886e-02  3.56562287e-02  5.08542880e-02  4.26781550e-02
   2.86731273e-02 -9.19609517e-03  4.35117558e-02 -3.23249176e-02
  -2.61649527e-02 -7.59578049e-02  4.59763631e-02 -6.32798076e-02
   6.07690737e-02  5.42819127e-02 -2.53977440e-02  4.27347645e-02]
 [ 1.01937801e-02  7.40913674e-02 -7.27175921e-03  5.75633347e-03
  -5.64798266e-02 -7.99540877e-02 -2.61109397e-02  4.86407354e-02
   1.01996735e-02  3.64188179e-02  4.06466872e-02 -1.58498436e-02
   6.83478490e-02 -4.88317013e-02 -5.44459224e-02  3.64729390e-02
  -5.05972877e-02 -5.30908480e-02 -3.09581049e-02 -3.09475847e-02
  -3.58068533e-02  5.81486598e-02 -6.89481944e-02  6.77453727e-03
  -2.77556218e-02  1.70755610e-02  3.06103453e-02 -2.28031240e-02
  -7.86625594e-02  3.28028202e-03  3.73452753e-02  4.05141637e-02
  -3.37963849e-02  6.46343455e-02 -3.59608643e-02 -7.16594458e-02
   6.26206324e-02 -6.07114732e-02 -7.93918595e-02  7.50850141e-03
   7.51308277e-02 -8.05781111e-02  5.85799888e-02  1.65490210e-02
  -8.44952464e-03  3.66614908e-02 -3.99308428e-02  7.90927187e-02
   7.11603984e-02 -3.83272134e-02 -7.55301863e-03  3.12731266e-02
   6.69418499e-02 -3.15575898e-02 -8.00744444e-02  6.92342594e-02
  -6.94750100e-02 -3.61057371e-03  5.55454120e-02 -8.10352713e-02
  -1.27625614e-02  5.36259338e-02  1.80970132e-02  7.62487724e-02
  -3.14958431e-02 -7.26710856e-02  5.15754744e-02 -8.03416818e-02
   2.04467103e-02  7.09358826e-02 -3.57599594e-02  4.22092080e-02
  -4.19196486e-03 -7.64841959e-02 -6.27536923e-02  2.19793543e-02
  -1.61102563e-02 -3.32093127e-02 -6.36548176e-02 -8.26656073e-03
   2.55033672e-02  5.16910627e-02  6.61388263e-02 -4.88625467e-02
  -2.86612175e-02 -3.33171263e-02  4.92372587e-02 -4.87767234e-02
  -7.88144395e-02  7.14401677e-02 -2.27584913e-02 -6.18890971e-02
  -2.27380320e-02  7.59097710e-02 -1.12709403e-03 -5.43217510e-02
   1.66890323e-02  3.64537016e-02  1.23263076e-02 -3.95994633e-02
   1.27654448e-02  4.58569303e-02  7.85428658e-02 -7.61588663e-02
  -3.14187258e-03 -3.47434804e-02 -1.05464682e-02  2.94781029e-02
   3.07110995e-02  7.13335201e-02 -1.62184164e-02 -7.65603483e-02
  -6.49343580e-02  2.63050795e-02  8.09162781e-02  3.88469324e-02
  -7.45871663e-02  4.25728634e-02 -2.78275833e-02 -2.80643776e-02
   2.53480077e-02  1.43470466e-02  4.91058603e-02 -3.21010351e-02
  -2.56930217e-02 -6.42087609e-02 -1.31805390e-02  8.02369341e-02]
 [ 2.41845101e-03 -6.52367696e-02 -8.02156553e-02 -4.41060998e-02
   6.65158257e-02  4.23191264e-02 -7.97267854e-02 -1.68999732e-02
   1.97669491e-02 -5.37343323e-03 -7.60338828e-02  8.03713426e-02
  -6.23479746e-02 -7.61068687e-02 -3.03111784e-02 -5.79846539e-02
   5.17502949e-02  2.60562673e-02  5.05389050e-02 -7.20720291e-02
   1.04763880e-02 -7.14434758e-02  6.08412251e-02  8.04930255e-02
  -3.74033302e-03  6.77969828e-02  1.40318349e-02  3.32056805e-02
  -9.11199301e-03 -5.25942780e-02 -4.78945673e-03  2.93762311e-02
   5.72671816e-02  6.17310479e-02 -5.51450774e-02  2.75968015e-02
   5.41187003e-02  6.10236302e-02  4.60269675e-02  1.06841773e-02
  -6.80493712e-02  7.97285140e-03  4.27316502e-02  2.95364112e-02
   2.31195167e-02 -3.18357721e-02 -7.39264935e-02 -5.52794784e-02
   1.16093233e-02 -2.72534676e-02 -6.10414594e-02  5.86394891e-02
  -1.67399868e-02  2.50466391e-02  3.53086740e-03 -6.47630394e-02
   7.40922913e-02 -7.89534599e-02 -3.94369997e-02  1.88969448e-02
   6.40343055e-02 -4.16353196e-02 -8.30183178e-03  7.74679706e-02
   1.36320144e-02 -2.97217891e-02  2.26514712e-02  7.74500594e-02
   8.01411793e-02 -1.68840215e-02  5.49859628e-02 -7.39311725e-02
   1.19595975e-03 -4.81320433e-02 -4.94698472e-02  2.64883041e-02
   3.43456343e-02  2.56723464e-02 -4.62281667e-02  5.37542030e-02
   7.19430819e-02  6.69901744e-02  7.18441382e-02  3.43336463e-02
   6.44449070e-02 -2.88309492e-02 -1.54420361e-02 -7.16257915e-02
  -5.60572669e-02  2.90356278e-02  2.73342207e-02 -4.64677103e-02
  -1.80785432e-02  6.80650547e-02  7.66066834e-02 -4.00737710e-02
  -2.32167877e-02  9.01147723e-04 -5.15534878e-02  3.43903005e-02
  -3.02652903e-02 -7.94366747e-03  1.09811351e-02  2.06384733e-02
   4.70158234e-02 -4.83307056e-02  6.42813668e-02  6.99686781e-02
  -3.71152833e-02  3.26035991e-02  7.97185227e-02  1.89977363e-02
   2.00547278e-02  7.11783692e-02 -3.01373675e-02  4.68205437e-02
  -6.19150698e-02 -3.51143889e-02  1.34752393e-02  4.66185883e-02
  -6.65338486e-02  5.59079573e-02 -3.98629904e-03 -4.80960160e-02
   4.23856825e-03  3.86413038e-02 -9.43869352e-03 -6.57365248e-02]
 [-7.39214048e-02  5.88173941e-02  1.86853819e-02  5.17032715e-03
   6.55144528e-02 -1.31545775e-02  8.07640627e-02  1.48213306e-03
   2.24638376e-02 -3.34662013e-02 -4.68584411e-02 -4.83429953e-02
   5.87643161e-02 -5.48020303e-02 -5.41631356e-02  6.57478422e-02
   3.32513708e-03 -2.68280692e-03 -6.43222034e-02  1.15468010e-01
  -7.90223181e-02 -7.29254389e-04 -3.93657945e-02  8.93563628e-02
  -4.18936610e-02  3.50289866e-02  9.94967148e-02 -8.85431617e-02
   9.81076248e-03  3.17004137e-02 -1.09502245e-02  1.23202857e-02
  -6.24687821e-02  1.13054691e-02 -2.43915711e-02  4.79866052e-03
   5.93829677e-02 -1.76874697e-02  5.54130003e-02  7.54634663e-03
  -7.26431534e-02  5.99969551e-02 -7.46800676e-02 -5.66752367e-02
   4.12072428e-03  1.42719999e-01 -1.45082241e-02 -2.33643390e-02
  -1.10514462e-03  1.14515901e-01 -4.60714027e-02 -9.58654843e-03
   1.51937410e-01  2.13097185e-02 -3.82374339e-02 -6.23793006e-02
   4.55220714e-02 -3.43772881e-02  5.49200922e-02  1.72888879e-02
   8.65498707e-02 -1.62037537e-02 -7.55721629e-02 -5.56381531e-02
  -1.78991407e-02  1.91271454e-02 -3.88578102e-02 -3.57543305e-02
   9.32413638e-02  5.52037135e-02  1.35044008e-02 -7.61713982e-02
  -2.03159489e-02  7.89550543e-02 -2.86650416e-02  8.71477649e-02
  -1.86403021e-02 -1.39306813e-01  5.61548164e-03  6.96527287e-02
  -2.22590417e-02  9.56062526e-02 -8.54802653e-02 -1.97530091e-02
   2.10102126e-02 -7.14149103e-02  1.64422523e-02  1.96637977e-02
   4.34819162e-02 -1.02953883e-02  2.50370298e-02  1.21840388e-02
   5.92503957e-02  4.34655920e-02  5.27786240e-02 -7.76996985e-02
   3.36206779e-02  4.62865494e-02  2.02091634e-02 -9.13127512e-03
   5.65565936e-02  1.05933636e-01  1.22898696e-02 -4.82056253e-02
  -3.36425304e-02 -3.42633910e-02 -7.21669868e-02  4.16670553e-03
   3.02929711e-02 -6.09863400e-02 -1.06066680e-02 -8.09823349e-02
   3.66095081e-02  2.06570956e-04  8.89771506e-02 -7.76428431e-02
   4.66841981e-02  6.42379448e-02  9.30306911e-02  1.06218897e-01
   5.38345315e-02  5.38219884e-02 -4.22641449e-02  6.04452007e-02
  -5.93610406e-02  8.64399076e-02  6.76050112e-02  4.28523906e-02]
 [-5.75795360e-02 -5.79094477e-02  3.56968818e-03 -1.36866629e-01
  -1.36014596e-02 -1.10810352e-02 -1.42570063e-02  5.37551418e-02
  -7.16098538e-03  3.26948985e-02 -4.32035029e-02 -3.90690640e-02
  -7.76034966e-02 -7.83164799e-02  3.54178995e-02  6.58915490e-02
   5.47551550e-02  4.57891123e-03  1.82609186e-02  3.23868804e-02
  -4.40038629e-02 -3.54122929e-02  1.64327733e-02  1.54643878e-01
  -5.48201166e-02  2.65419483e-02  9.94268898e-03 -7.49818087e-02
   4.24608309e-03  4.32668813e-03 -4.30800952e-02 -1.08973728e-02
   1.24524161e-02 -4.92546819e-02  4.08625901e-02 -1.03551239e-01
   4.06826213e-02 -1.64306089e-02  5.64575344e-02 -1.22751169e-01
   2.71278014e-03  2.88249329e-02 -1.70926228e-02 -5.52731566e-02
  -3.55078764e-02  1.40605137e-01 -4.45803441e-02 -4.05212790e-02
  -3.93071622e-02  5.05432934e-02 -1.41651351e-02  1.65722407e-02
   1.33957699e-01  3.12720165e-02  1.98004674e-03  4.99620959e-02
  -3.14897895e-02  8.84326324e-02 -3.60522754e-02  1.08358823e-01
   1.60864443e-01  3.43650058e-02  5.00621833e-02  1.53120942e-02
   1.51028363e-02  1.51688643e-02 -5.80380969e-02  8.73103142e-02
   1.59693975e-02  9.63575542e-02 -4.44360487e-02 -7.23574758e-02
   1.94327310e-02  2.14184429e-02  3.63770351e-02  1.09822480e-02
   7.03333244e-02 -1.68799683e-02  1.08512752e-01  4.42410782e-02
  -1.15965977e-02  2.82276701e-02  2.78700944e-02  7.16012195e-02
  -3.79869752e-02 -1.08538717e-02 -9.30788927e-03  1.70186564e-01
   4.76757511e-02  1.03012495e-01 -3.72886471e-03 -5.18922955e-02
   5.98100945e-02 -6.60957396e-02  7.11181834e-02 -7.10901199e-03
  -2.55143009e-02 -7.21768364e-02  3.61416563e-02 -2.63191927e-02
  -3.57569493e-02  6.70592040e-02  6.21738806e-02 -1.46896467e-02
   1.02587715e-02  4.76116538e-02 -3.79921757e-02  6.96076499e-03
   2.30954904e-02 -1.49043068e-01 -1.38272690e-02 -9.97267012e-03
  -3.31150405e-02 -1.00012369e-01 -2.02504098e-02  1.74542423e-02
   2.17416808e-02  6.62885457e-02  9.68240723e-02  6.05447218e-02
   5.49520701e-02  1.31349899e-02 -4.47766148e-02  5.60226440e-02
  -1.76149085e-02  1.21640608e-01  2.33505107e-02  7.10044578e-02]
 [ 2.97531486e-03  5.78186288e-02 -3.46917100e-02  9.76702664e-03
  -7.61953369e-02 -7.83275589e-02  7.45000616e-02  9.28997025e-02
  -5.63912950e-02  7.88613036e-02  6.10253215e-03 -5.18303849e-02
  -4.51800115e-02  1.08621046e-02 -6.73358217e-02 -5.66996261e-02
   7.55285099e-02 -5.92979565e-02 -3.90950553e-02 -4.17477675e-02
  -3.70857939e-02  5.23408465e-02  8.89355689e-02 -3.71502489e-02
   7.74425939e-02  2.29880735e-02  3.36977802e-02 -5.23499213e-02
  -3.33784260e-02  6.05871491e-02 -7.01836199e-02  1.52309984e-02
   4.58451286e-02  5.89981005e-02 -2.67180093e-02  3.56792263e-03
  -6.11921363e-02  3.80859897e-02  4.76424396e-02 -2.80933753e-02
   9.66252834e-02  3.22799385e-02 -5.85049130e-02  4.35970491e-03
   8.90627280e-02 -3.09808888e-02 -4.35529836e-02  6.87220916e-02
   2.89827138e-02 -7.26951137e-02 -1.40925054e-03  5.80310188e-02
   4.11621891e-02  2.79366883e-04  6.56302199e-02 -3.19344364e-02
   3.18755209e-03  3.79015952e-02  6.46318272e-02 -4.09636013e-02
   7.61444345e-02 -8.24596733e-03 -5.97449578e-02 -5.87605126e-03
  -2.25527287e-02 -3.90867889e-02 -3.51469927e-02 -2.38598865e-02
  -5.31268828e-02  3.17754410e-02 -1.65365115e-02  2.43788287e-02
   4.15245295e-02  1.25436977e-01  5.16914502e-02  5.74339852e-02
   3.20085809e-02 -7.66630378e-03  2.83935964e-02 -3.84485982e-02
  -7.18761086e-02  1.34167969e-02  6.47237375e-02 -3.84310409e-02
   3.92916724e-02 -6.36197031e-02  3.46975140e-02 -5.16101718e-02
   1.81623995e-02 -6.56922385e-02 -6.30577281e-02  9.46200714e-02
   7.74110332e-02  5.04494086e-02 -7.12645724e-02 -3.27551998e-02
  -6.23226119e-03 -6.23304769e-02 -4.71493676e-02  7.49020949e-02
   7.26119652e-02  2.22378895e-02  9.09509137e-02 -5.72274029e-02
   2.39797011e-02 -6.51259348e-02 -3.19363293e-03 -5.18842041e-02
  -9.92175117e-02  7.88302198e-02  4.17692922e-02  6.27573058e-02
   4.94058430e-03 -6.19584061e-02  8.55684355e-02 -3.46026160e-02
   7.25128278e-02 -3.00640948e-02 -3.79569605e-02  4.49361792e-03
   8.87971595e-02  4.11311239e-02 -9.85881686e-03 -5.05995303e-02
  -2.81958990e-02 -3.23619731e-02  3.49396328e-03 -1.02328077e-01]
 [-6.83557093e-02  2.99654081e-02 -2.85873264e-02  6.64181858e-02
   2.53099054e-02 -1.49930790e-02  6.27707317e-02 -1.55747049e-02
  -4.70874645e-02 -7.74139762e-02 -6.14940748e-02 -2.13376805e-02
   5.44144586e-02 -5.74888512e-02  3.13172489e-03 -5.94182238e-02
   4.01557796e-02 -4.66263220e-02  1.60543597e-03 -1.04855066e-02
  -9.26915091e-03 -3.03462129e-02 -6.81377277e-02 -4.13376540e-02
   6.87709525e-02  6.67875186e-02 -7.26772621e-02 -3.17967534e-02
  -3.09123751e-02 -1.67318806e-02  6.74598739e-02  1.52226463e-02
   2.17039138e-02 -1.24780340e-02  7.23270252e-02 -1.19842375e-02
  -5.26943579e-02  2.29045153e-02 -9.50800255e-04  1.82746816e-02
  -3.17684896e-02  3.59850600e-02  7.35758916e-02  1.66892055e-02
  -2.33262703e-02  4.34473529e-02  7.83716366e-02 -4.72217500e-02
  -1.19819343e-02  2.32052729e-02 -1.84147749e-02 -4.29960415e-02
  -8.19153339e-02 -1.25861233e-02  6.01885915e-02  3.72526795e-02
  -6.28724098e-02 -7.27335513e-02  6.26867786e-02  5.96755221e-02
  -7.55780116e-02  4.62693796e-02 -3.16501334e-02 -4.41370606e-02
   5.47346734e-02 -1.86501779e-02  3.49766016e-03  7.08668083e-02
  -3.19657214e-02  6.61710352e-02 -7.82643259e-02 -7.22187012e-03
  -4.42129225e-02 -6.96340203e-03  6.80743530e-02 -4.21877317e-02
   3.93086150e-02  5.49746603e-02 -9.45249945e-03  8.51218123e-03
  -2.64208764e-02 -4.43215258e-02 -2.84889750e-02  8.05581734e-02
   6.88256249e-02  5.19245788e-02  3.81716117e-02  4.43718024e-02
  -7.18353838e-02 -9.23791062e-03  3.46916318e-02  8.34460184e-02
   6.07630983e-02  6.77920803e-02 -5.81640378e-02 -3.98222543e-02
  -2.21843552e-02  6.90069124e-02  5.09894863e-02  7.22095445e-02
   3.43651287e-02 -2.15110891e-02 -2.49774903e-02 -5.32400981e-02
   3.71591225e-02 -1.32877585e-02  2.67610643e-02  5.74745163e-02
  -4.71664965e-02  4.27620374e-02 -2.93939579e-02  7.30621740e-02
   6.02792427e-02  5.74200563e-02 -7.07403151e-03  5.17908335e-02
  -6.31338209e-02  4.91062505e-03 -7.70800002e-03  2.74342690e-02
  -1.16533702e-02 -3.72981280e-02  7.59562328e-02  5.08717224e-02
   2.44221836e-02  3.68744023e-02 -2.15584431e-02  2.65313834e-02]
 [ 1.46833807e-02 -3.50631811e-02 -6.51714802e-02  4.24887612e-02
  -6.07722700e-02 -5.14783040e-02 -3.77145410e-03 -5.37072867e-03
   3.78341079e-02 -7.19632879e-02 -6.62193447e-02 -6.21419027e-02
  -5.03798127e-02  1.48539394e-02 -7.04487860e-02  2.84444913e-02
  -1.76382735e-02 -1.79283246e-02 -3.16832885e-02  7.37192258e-02
  -7.42181093e-02 -7.85931498e-02 -4.40721959e-03  4.67911363e-03
   5.13023064e-02  3.56983393e-03 -5.06017730e-02  1.72011107e-02
   2.50258893e-02 -5.70387989e-02  6.78563938e-02  4.22010273e-02
  -6.25341088e-02  7.74854794e-02  2.19532996e-02  7.13033155e-02
  -7.42335841e-02  1.27699673e-02  4.93430570e-02 -2.93237865e-02
   7.84548298e-02  4.62352261e-02  1.96846873e-02  4.10379246e-02
   2.65849829e-02 -7.42176101e-02 -7.73027688e-02 -5.27084507e-02
  -6.44132271e-02 -3.01054195e-02 -4.41883616e-02  5.23167923e-02
   1.53472796e-02 -5.35715185e-02 -4.48990613e-03  2.38105729e-02
   1.40157789e-02  7.39466473e-02  4.11756486e-02 -5.28727323e-02
   6.92117140e-02  2.40353197e-02 -4.18887287e-02  7.93033466e-02
   1.13969073e-02  4.22339588e-02  4.94253114e-02 -1.06745288e-02
   6.80016056e-02 -3.87816653e-02  6.27695844e-02  8.07586983e-02
  -7.01728910e-02  6.65284321e-02  4.39952537e-02 -2.78237313e-02
  -1.94385871e-02 -4.80615161e-02  4.13479507e-02 -6.91314042e-02
  -4.16517183e-02  7.32028708e-02 -6.21587485e-02  1.89360455e-02
   1.80849656e-02  8.87741894e-03  3.62855121e-02 -3.47518921e-02
  -5.03345802e-02 -2.25916021e-02  4.16364446e-02 -4.18203883e-02
  -4.41547148e-02  1.16137937e-02  1.57454982e-02 -6.52549639e-02
  -3.17213871e-02  4.19280455e-02 -6.26426488e-02 -7.74921253e-02
   7.42372200e-02  2.91283429e-03 -6.82076961e-02  1.71597451e-02
  -3.96703184e-02  7.47095719e-02 -6.09219298e-02 -7.06121400e-02
   5.96285984e-02  3.73956487e-02 -7.76254609e-02 -8.45164061e-04
  -7.65696093e-02 -1.09764934e-02 -1.26240402e-03  6.36672452e-02
  -8.99256021e-03  2.62869373e-02  4.73168567e-02 -2.69557126e-02
  -3.41972895e-02 -5.82775548e-02 -2.44103111e-02 -4.27289791e-02
   3.43807489e-02  5.60863838e-02 -2.74308547e-02 -4.45397981e-02]
 [-7.19771907e-02  4.11808342e-02 -7.44031966e-02  4.75281477e-03
   2.68187970e-02 -6.58007339e-02 -8.00790712e-02  3.76696959e-02
   2.19417587e-02 -5.87067083e-02 -3.14021111e-02  6.17071465e-02
  -2.18166970e-02  4.85101342e-03  2.78504789e-02  3.41561139e-02
   2.26931497e-02 -1.12561658e-02  2.77441368e-02 -4.52007353e-03
  -4.67690416e-02  6.02307245e-02  2.33374611e-02  2.02172473e-02
  -7.26885721e-02 -2.36946195e-02 -4.17750999e-02  7.18796030e-02
   5.42195067e-02  6.65523857e-03 -8.25412571e-03 -4.32140604e-02
   3.44625115e-02  7.34172687e-02  4.99590114e-02 -3.94616388e-02
   6.58691898e-02 -4.62060459e-02  5.14672175e-02 -3.93374264e-02
   3.10482085e-03 -8.03674385e-02 -4.14007455e-02 -6.32543415e-02
  -2.70666592e-02 -4.55459319e-02 -3.97180058e-02 -7.05355182e-02
   5.23533747e-02  1.07184052e-02  6.59309551e-02 -4.29357439e-02
  -5.02977185e-02 -5.06056622e-02  6.06529936e-02  7.70313665e-02
   6.28937557e-02  7.48574361e-02 -7.98807889e-02  3.80043834e-02
  -5.48793674e-02 -7.03443065e-02 -2.26982124e-02 -4.61958721e-02
  -2.96781808e-02  1.14084333e-02 -7.11829290e-02  5.69184050e-02
  -1.23748109e-02  4.93404940e-02  4.98391911e-02 -6.22152388e-02
  -3.19684148e-02 -5.68188429e-02 -3.37609649e-03 -2.80233435e-02
   5.32397851e-02 -6.45177811e-03  7.76462182e-02 -5.67087717e-02
   8.02859440e-02 -4.60113846e-02  6.99356720e-02  4.53392416e-03
  -1.48259178e-02  7.08784685e-02 -1.85017064e-02 -6.08719215e-02
   9.98034328e-03  1.94305852e-02  4.04619426e-03 -1.37375593e-02
  -6.99094459e-02 -2.92150676e-02  5.10777310e-02  1.09995082e-02
  -7.02970773e-02  6.01512417e-02 -1.52236298e-02  6.15304634e-02
  -1.27560869e-02 -7.73770213e-02 -1.18906721e-02 -2.87068151e-02
  -2.24043094e-02 -1.78595409e-02  1.84927508e-02 -5.51389456e-02
   7.16157928e-02 -6.41617179e-02  5.05789369e-03  6.59724548e-02
  -6.03843629e-02 -4.08804305e-02 -6.63939565e-02  6.58238009e-02
  -2.30641924e-02 -9.43099707e-03 -2.06434429e-02  6.72260597e-02
   4.13550287e-02  5.33023104e-02  6.03183582e-02 -6.20295107e-03
  -4.05851528e-02 -4.99894097e-02  1.08864382e-02 -6.85559362e-02]
 [-3.22104320e-02 -4.59545478e-02 -4.54684421e-02  4.74870130e-02
  -4.40401919e-02  7.31818378e-04 -3.72802392e-02 -4.00962047e-02
  -6.38318434e-02  1.51236728e-02  3.26478109e-02 -2.88128853e-02
   6.48886189e-02 -6.09337240e-02  5.66282049e-02  1.72972605e-02
   1.71436518e-02  2.90791541e-02 -2.88430341e-02  4.75260243e-02
   1.01268068e-02  4.57587913e-02  5.96374646e-02 -9.82461125e-03
   7.54313245e-02 -7.98351169e-02 -6.09744117e-02  2.26873681e-02
  -3.51776816e-02 -8.01973045e-02 -3.32741961e-02  3.37488130e-02
   1.56571567e-02  8.54922831e-03  4.85852361e-04 -5.77732101e-02
  -2.88531110e-02  7.90579841e-02  6.94952905e-03 -2.93211751e-02
  -9.62111354e-03 -4.71120253e-02  5.50036356e-02 -1.04919821e-03
  -1.27706677e-02 -1.35256872e-02  7.80358091e-02 -6.54465109e-02
  -2.99972035e-02 -1.75741836e-02 -9.10408795e-03 -1.70576349e-02
  -1.00010931e-02  3.86663526e-03 -1.83478668e-02 -4.85995859e-02
   1.17672235e-02  5.59220538e-02 -6.95685893e-02  3.41764018e-02
   3.18196863e-02  6.27597794e-02 -7.96245784e-02  3.72864828e-02
  -6.44405708e-02 -6.51720241e-02  9.68375057e-03 -6.01376668e-02
   7.60080442e-02 -6.53471351e-02 -5.67348599e-02  1.09926239e-02
  -6.16896972e-02 -7.96167552e-03  4.63393852e-02  5.37631735e-02
   3.33004519e-02 -2.26515308e-02 -1.13062561e-02  4.67840210e-02
   3.19024920e-02 -3.91418599e-02  4.40087840e-02 -5.78172058e-02
  -3.09561118e-02 -5.80058880e-02 -4.76269424e-03 -8.02585110e-02
  -5.55422455e-02 -5.88409603e-04 -6.75458014e-02 -7.79133514e-02
   7.60950148e-03  1.62090510e-02 -1.95968524e-02 -4.12896685e-02
  -4.98210676e-02 -7.98016787e-02 -7.82469362e-02 -5.51432595e-02
  -7.22763166e-02  3.10794488e-02 -5.02246767e-02  1.56717375e-02
   1.08548999e-02 -7.86927268e-02  7.28970766e-03  4.75958362e-02
   4.56220433e-02  5.08251116e-02 -1.65791139e-02 -7.57996216e-02
  -6.69764727e-03  4.62426320e-02  5.13632223e-02 -4.92982194e-02
   3.14798504e-02  3.23837399e-02 -2.23044306e-03  5.48404530e-02
  -7.70276040e-02  4.03675437e-03 -5.47807626e-02 -1.68668255e-02
  -2.36236304e-03 -8.03738385e-02  5.69812953e-03  7.08037093e-02]
 [-5.04713580e-02 -5.31666353e-02 -2.55299993e-02 -6.88888058e-02
   2.52874568e-02 -4.79654036e-02  5.44610545e-02 -5.00955582e-02
  -1.62668526e-02  4.04033139e-02 -6.64012209e-02 -7.32157379e-03
  -3.39932516e-02 -5.86516112e-02  2.95140967e-02 -7.92260170e-02
   4.26710621e-02  7.56554827e-02 -2.84019299e-02 -3.04272659e-02
   1.15129799e-02  2.26588994e-02  4.52127382e-02 -6.69926703e-02
  -4.87557054e-03 -4.75244708e-02 -8.03033113e-02  8.59954953e-03
   7.07652643e-02 -7.13190138e-02 -6.13365807e-02 -5.79417646e-02
  -1.41934827e-02  3.07114273e-02 -6.92064017e-02 -1.23759285e-02
  -2.28792392e-02 -1.39280260e-02 -1.42996684e-02  6.49594888e-02
  -8.07149857e-02 -1.85804069e-03  7.04510435e-02  2.20314860e-02
  -4.37820666e-02  6.10608608e-03  1.14882812e-02 -5.62456176e-02
   7.97555372e-02  7.82944337e-02 -5.48844934e-02  3.52425128e-03
  -1.77861527e-02 -7.23292679e-02  2.36870572e-02  8.44445825e-03
  -1.75064951e-02 -5.91985397e-02  6.17213026e-02 -5.98507449e-02
  -5.94942980e-02  8.68313015e-03  2.58847773e-02  7.66860321e-02
  -1.79419592e-02  5.05636632e-03 -7.47454464e-02  6.74569383e-02
   6.67761937e-02 -7.68263042e-02  4.39527258e-02 -4.59872708e-02
  -3.24530900e-02 -4.42011282e-02 -8.05908591e-02 -5.02764881e-02
   6.28781691e-02  3.44540924e-03 -6.27910942e-02  3.64857838e-02
   1.72798932e-02 -7.83105195e-02 -1.90955251e-02 -1.29661709e-03
   2.21760049e-02 -4.06499766e-02 -2.77585424e-02  4.30511162e-02
   1.15386248e-02 -1.66894346e-02  9.16637480e-04 -6.20061904e-02
  -2.78208517e-02  7.39644393e-02 -7.20536560e-02  2.91755795e-02
  -3.56320553e-02  3.19288298e-02 -8.01037848e-02 -3.28838900e-02
  -3.86292599e-02 -2.45654993e-02 -3.36400159e-02 -6.62326366e-02
   1.02189928e-02 -5.84052652e-02  2.91897878e-02  5.11789992e-02
   4.96420488e-02  6.19605109e-02  7.70702735e-02  2.35144645e-02
  -6.77070618e-02  1.12689137e-02  4.38784882e-02  6.00036457e-02
   1.02996081e-03  6.15113601e-02  4.91733328e-02 -1.79705620e-02
   6.32684156e-02 -4.01755124e-02  8.23349506e-03 -6.92745447e-02
  -5.58155328e-02 -2.11432017e-02 -1.84896588e-02 -1.85377523e-02]
 [-9.31759924e-03 -9.89844650e-03 -7.56022483e-02  5.47155514e-02
   7.50152022e-03  4.01664451e-02  1.44803226e-02 -5.02302498e-03
   3.61301675e-02 -4.49762642e-02 -6.86254799e-02  7.63336048e-02
  -4.01973724e-03  2.51047090e-02 -5.52391782e-02  2.98721641e-02
   7.83354715e-02  7.45189264e-02  7.32365921e-02 -8.09822232e-03
  -2.58326046e-02 -4.91880663e-02 -4.57595438e-02 -3.43970731e-02
   1.03646293e-02 -2.53918022e-03  5.68891838e-02 -8.40109587e-03
  -8.19479674e-03  5.35814837e-02 -7.37285465e-02 -7.60537833e-02
   4.38380316e-02  6.22681305e-02 -8.10153112e-02 -5.89254424e-02
   5.44588193e-02 -1.09847337e-02  2.77028531e-02 -5.32115772e-02
   3.39455977e-02  1.13127381e-03 -3.56905162e-02 -1.26293600e-02
  -1.42493322e-02 -5.47662191e-02  4.96684387e-02  3.40409800e-02
  -5.30281700e-02  3.84265557e-02  6.83878735e-02 -2.41257846e-02
   8.02971795e-02  6.51215091e-02  4.07913178e-02 -4.98065054e-02
   4.88037989e-02 -7.53671527e-02 -4.21395153e-03  1.95999444e-02
   5.56055829e-02  7.23294914e-03 -4.07507867e-02 -1.81923509e-02
  -4.43279669e-02  6.53788671e-02 -5.35245277e-02 -5.92608452e-02
  -7.12690055e-02  4.17847857e-02 -4.30288911e-03 -3.58182192e-03
   4.36697677e-02  5.91641590e-02  6.38697222e-02  3.98424491e-02
   3.54574695e-02  7.39777163e-02 -4.06796411e-02 -3.31304707e-02
  -1.53718218e-02 -2.80354880e-02  4.26417440e-02 -7.06924871e-02
  -1.31274015e-02  4.20435742e-02 -7.89840594e-02  7.33440593e-02
  -2.11095922e-02  1.44205689e-02 -6.20338842e-02  1.65552124e-02
  -5.48787490e-02 -4.82623838e-02 -2.07637846e-02 -1.72750577e-02
  -5.66489995e-03  2.72553414e-02 -2.87414119e-02 -5.79757765e-02
   3.65607589e-02  6.72708079e-02 -1.58955827e-02 -7.22649619e-02
   6.13267720e-03  1.55994296e-02  4.92665097e-02 -9.41976160e-03
  -3.15507278e-02  1.90547630e-02  6.51043579e-02  3.41954678e-02
   5.46911284e-02 -1.98083930e-02 -7.67831653e-02  4.46441844e-02
   5.86343631e-02  5.32806590e-02 -4.71951030e-02  6.29301369e-03
  -3.61631624e-02  3.05628479e-02  1.42541230e-02 -5.50434738e-02
  -4.38520908e-02 -1.57247856e-02 -4.61215340e-02 -6.03926778e-02]
 [-9.92715359e-04  7.04274252e-02 -3.70779596e-02 -4.92920503e-02
   2.03638449e-02  4.82574776e-02 -6.97068721e-02  1.70107037e-02
   6.04638383e-02 -2.24460810e-02 -6.46146536e-02 -4.70432006e-02
  -1.80605203e-02  2.18636915e-02 -2.69214064e-03 -7.72557929e-02
  -5.85719794e-02  1.94315463e-02  7.33849183e-02 -7.07263499e-03
   1.30724907e-03  3.60222235e-02  6.67591318e-02 -4.18153405e-02
   2.14554146e-02 -7.02290237e-02  7.39892498e-02 -5.93274087e-03
  -7.81979561e-02 -4.87325341e-03  4.45833281e-02 -6.05750009e-02
  -4.87292297e-02  6.27165660e-02 -6.80579394e-02  6.33010268e-03
  -7.96299353e-02 -7.82301724e-02  7.15942010e-02  7.43308589e-02
  -2.20521800e-02 -9.04968381e-03  6.47191778e-02  6.19025752e-02
  -8.71412456e-03 -3.94207761e-02 -3.59870680e-02  2.12402567e-02
  -1.10016912e-02  7.05196038e-02  1.14772245e-02 -4.17888276e-02
   5.27529493e-02  3.30405310e-02  4.93290648e-02 -2.27078237e-02
  -1.50224715e-02  5.01612946e-02 -1.81484744e-02  3.72045711e-02
  -4.80899215e-02  1.55819282e-02  1.96655989e-02 -6.76863864e-02
  -2.87556835e-02 -7.72109255e-02 -1.84265152e-02  3.08969915e-02
  -2.00681388e-03 -6.91290870e-02  5.76896444e-02  8.10752735e-02
   6.56409338e-02  5.80462292e-02 -1.18168965e-02  3.45156342e-02
  -4.32911813e-02 -7.44353756e-02 -2.21271552e-02  6.89863488e-02
  -2.60902494e-02 -2.29239315e-02 -1.43850297e-02  7.85737410e-02
   1.01769120e-02 -5.18725328e-02  5.50953522e-02  2.58016810e-02
  -4.73218821e-02  5.74120805e-02 -7.92947486e-02 -6.36256784e-02
  -3.37064266e-03  8.41850042e-03  7.07544908e-02 -3.25885937e-02
  -6.88313097e-02 -3.30760740e-02  2.60678530e-02 -2.52125412e-02
   4.99171093e-02  7.90702328e-02  6.78963140e-02  6.60707280e-02
  -1.05337873e-02  3.74694094e-02  3.11011523e-02 -6.22967258e-02
   3.45892012e-02  7.50423893e-02  3.57946306e-02 -3.17433365e-02
  -3.74200568e-02  3.93110514e-02 -4.62258458e-02 -4.54010107e-02
   4.75876778e-03 -6.89278692e-02 -7.45978579e-02  5.02233878e-02
   7.03767315e-02  9.39121842e-03 -5.95688485e-02  6.17475435e-02
  -5.60981855e-02 -5.85302860e-02 -6.90431148e-03 -4.39552590e-02]
 [-6.75871223e-02  1.47388428e-02 -1.34789124e-02  7.22691640e-02
  -4.90324721e-02 -3.57910171e-02  5.51279113e-02 -2.70247124e-02
  -2.10062414e-03 -2.28155404e-02 -2.00389475e-02  5.07987514e-02
   2.70303637e-02 -1.02039725e-02  3.09505984e-02 -8.01929310e-02
  -7.89612010e-02  4.26779091e-02  1.13600492e-02 -3.67821828e-02
  -7.78487995e-02 -7.82139599e-03 -7.82577097e-02  2.51701325e-02
  -1.48592368e-02 -6.34516925e-02  4.21770811e-02  6.76225871e-03
  -7.96064213e-02  2.99473330e-02 -6.76154345e-02 -2.27605999e-02
   5.71779981e-02 -8.03230032e-02 -2.81293355e-02 -1.73279494e-02
   4.67049405e-02  7.31669143e-02 -1.06123760e-02  2.56910920e-04
  -3.74381170e-02 -3.88069600e-02 -6.07306734e-02  3.50839123e-02
   6.22667894e-02 -4.62404452e-02  7.11347237e-02  6.91794232e-02
  -3.22249383e-02 -3.43292356e-02  3.14327031e-02  3.30465436e-02
  -1.92667097e-02 -8.85038823e-03  3.28633934e-02  6.33047149e-02
   2.35368311e-03  6.19962737e-02 -7.18045980e-02 -7.35890567e-02
   7.49529526e-02 -3.49806622e-02  7.97555968e-02  7.62322173e-02
  -8.98735970e-03 -3.12847085e-02 -4.15594168e-02  5.79290763e-02
  -5.05394489e-02 -6.06422126e-03 -1.71054974e-02 -6.93763420e-02
  -2.46783383e-02 -4.33429107e-02  1.02184340e-02 -7.55117461e-02
  -5.39691746e-02  4.92510125e-02  1.39045119e-02 -6.15702644e-02
  -5.73227257e-02 -2.70702541e-02  7.23908171e-02  1.76525861e-03
  -6.88216239e-02  4.48961481e-02  4.97112051e-02  7.91615471e-02
   4.19491827e-02  2.91599110e-02  7.74831101e-02 -2.55922861e-02
  -1.77133977e-02 -5.76731563e-03  1.49257481e-02 -6.47495240e-02
   6.64835423e-03  6.58499524e-02 -4.13079821e-02  4.32007760e-02
   1.89083740e-02  2.41672248e-02 -6.90510124e-02  2.31427625e-02
   5.66834584e-02 -5.01178950e-03  7.10730329e-02  6.54838309e-02
  -7.70764127e-02 -3.77544723e-02 -5.92979565e-02  2.14880407e-02
  -1.82062387e-03  5.09199873e-02  5.60744628e-02 -1.45798400e-02
  -5.40778935e-02 -1.19668692e-02 -2.44079307e-02  2.85247490e-02
  -3.15190703e-02  6.98916689e-02  4.53499779e-02  6.02044389e-02
   4.95375171e-02 -2.78213173e-02  4.65771332e-02  2.33994424e-02]
 [-6.74795881e-02 -3.62848490e-03  5.67413345e-02 -3.33141275e-02
  -6.51978776e-02  7.29940310e-02  7.13931546e-02 -2.59968042e-02
   4.61076722e-02 -4.54192832e-02  7.18416050e-02  4.77912799e-02
   6.69585541e-02  2.18496472e-02  6.56015798e-02 -6.86131567e-02
   3.98566648e-02  1.96408108e-02  5.23199216e-02  1.21815205e-02
   6.14627078e-02 -3.16054933e-02  4.91352305e-02 -4.58260290e-02
   7.49513507e-03  9.94291902e-03  5.05896732e-02 -6.42624050e-02
  -2.51995772e-03 -1.57968402e-02  6.31638542e-02  6.05320260e-02
   4.27473336e-03  4.18229401e-03  2.87460312e-02 -6.97477534e-02
   4.87178341e-02 -6.21084720e-02 -4.35369126e-02 -3.42792645e-02
   4.63054851e-02  1.04397535e-03  4.83964011e-02 -7.51970932e-02
   4.04519737e-02 -1.13686398e-02  7.82511905e-02  3.08711007e-02
   7.58138075e-02 -4.39101458e-03  3.22642550e-02  6.51178584e-02
   3.53613198e-02 -5.20096794e-02 -5.83259538e-02  8.07531402e-02
   5.52020445e-02  6.12486526e-02 -5.19069731e-02 -8.07293952e-02
  -5.31565398e-03 -4.82190847e-02 -1.34462863e-02  7.35918060e-02
   7.11086392e-03  2.05919072e-02  2.06211433e-02 -3.95920873e-03
  -4.44096699e-02  5.05543575e-02 -6.73506185e-02  7.88450167e-02
   7.37618655e-03  4.91544381e-02  6.28414080e-02  3.45177427e-02
  -7.71553889e-02  3.29668149e-02  3.95256057e-02 -2.88454331e-02
   5.03288284e-02 -7.82105401e-02  6.21122867e-03 -6.74346089e-02
  -6.45891875e-02  5.56428730e-03 -2.69743577e-02 -4.19043936e-02
  -7.82654285e-02 -6.28496483e-02 -3.77168581e-02 -4.79208305e-02
   5.80105260e-02 -3.96249108e-02  4.19283658e-03 -7.75527954e-03
  -2.49502733e-02  6.70239553e-02 -3.35455686e-02 -1.90012157e-03
   5.22285923e-02 -1.70671716e-02 -4.80190665e-02 -3.06770951e-03
  -4.60675359e-03 -5.83801605e-02  1.77527368e-02 -6.44257218e-02
   3.31382081e-02 -1.83004886e-02 -7.32366741e-02  3.94632593e-02
  -1.71118975e-02 -5.08566126e-02  5.68384007e-02 -5.34182414e-02
   3.46646458e-03  2.38812119e-02  1.31809711e-03 -3.60004902e-02
  -6.10870570e-02 -9.29091126e-03  4.59133610e-02 -1.78606436e-02
  -7.02458546e-02  9.20213014e-03 -1.71701685e-02  5.52220568e-02]
 [-6.92451298e-02  7.15812966e-02 -7.29867816e-03 -7.65444487e-02
   9.84185934e-03 -1.16141737e-02 -5.97262010e-02  3.00619081e-02
  -7.58319944e-02 -1.68366581e-02 -3.70923281e-02 -7.25676492e-02
   2.98236981e-02  8.02410468e-02 -6.74006492e-02  5.33429533e-03
  -7.47966394e-02  4.39844802e-02  5.82649484e-02 -2.25007124e-02
   5.25853857e-02 -7.46557191e-02  1.65063590e-02  2.37833038e-02
   6.01025298e-02 -5.66024855e-02 -6.44417703e-02 -1.21878833e-02
  -2.57116817e-02  1.04556605e-02  1.25513524e-02  5.02290800e-02
   7.93296471e-02 -7.87824318e-02  1.69399381e-03  2.29020789e-02
   4.59963009e-02 -6.15249351e-02 -3.22087295e-02 -4.46703881e-02
   1.23807490e-02 -4.46937904e-02 -4.60689366e-02  5.71186915e-02
  -2.54937783e-02  3.67054269e-02 -6.70191422e-02 -5.29810786e-04
  -3.49896178e-02 -3.73820961e-03  6.29229844e-03  6.36703148e-02
  -1.72456652e-02  2.52352655e-02  7.11538419e-02  1.13803595e-02
  -3.46947648e-02 -3.91961038e-02 -5.32627106e-03 -5.20682782e-02
  -6.41057640e-02 -1.82267949e-02 -1.14331692e-02 -3.49627174e-02
   7.52168223e-02 -5.68436161e-02 -6.46703318e-02  3.93428206e-02
  -7.20486790e-03 -5.51390052e-02 -5.92425540e-02  4.28290144e-02
  -7.23283142e-02  2.70651281e-02  6.21049926e-02  3.48751768e-02
  -6.61595911e-02  4.31992635e-02 -9.49047506e-04  1.56862438e-02
  -6.02398887e-02  4.63159308e-02  2.48519555e-02 -4.90919761e-02
  -9.32723284e-04  6.29883260e-03  7.78037235e-02  8.18089396e-03
   1.53965130e-02  3.18152755e-02  7.90043175e-03 -4.36509140e-02
  -3.06266062e-02 -4.64912653e-02 -1.25578791e-03  4.80758324e-02
   1.84083208e-02  1.62915140e-02  1.78628638e-02  4.40100059e-02
   2.11131871e-02  6.37200698e-02  4.05757353e-02 -8.01628232e-02
   6.78238645e-02  4.84350547e-02 -1.14989430e-02 -1.48859844e-02
  -6.90196902e-02 -6.41594678e-02  7.91032240e-02  5.62477633e-02
   6.24097213e-02 -3.62445191e-02  2.79777795e-02  3.77582014e-02
  -3.51594277e-02 -5.20488620e-03 -3.65343988e-02 -4.97062951e-02
  -3.62338237e-02 -2.39683129e-02  5.32878116e-02 -5.03105223e-02
  -6.29916862e-02  7.91122839e-02 -5.41232005e-02 -5.50712645e-02]
 [ 1.26982406e-02  6.88852146e-02  1.84934661e-02  4.20021117e-02
  -8.57853144e-03 -2.49716416e-02 -3.74434143e-02  5.77686206e-02
  -4.59716059e-02  6.14017174e-02 -2.31623724e-02  3.21747363e-02
   5.93333468e-02 -6.75509050e-02 -1.42093375e-02 -4.97353040e-02
  -1.66643932e-02 -4.45045643e-02  6.38618991e-02  3.61516923e-02
  -6.29651174e-02  3.92061397e-02  4.31648642e-02  4.54871878e-02
  -4.00699824e-02  7.10948482e-02  2.27034763e-02  4.29525897e-02
   1.25925764e-02 -7.91324750e-02 -5.86186051e-02 -6.52380064e-02
   1.20341778e-04 -3.41743231e-04 -7.09813461e-02  9.59311426e-03
   5.27359545e-03 -6.18524328e-02 -1.13224387e-02  1.13937408e-02
   4.02402729e-02 -4.19070832e-02  2.48115584e-02 -7.09795207e-03
   7.03219697e-02 -5.81096001e-02  4.68421802e-02  8.07316527e-02
  -3.64124924e-02 -1.00371391e-02 -6.73447996e-02  1.91476792e-02
   4.11753953e-02  2.20610574e-02 -3.76545303e-02  3.72765213e-03
  -2.16379538e-02 -5.79579286e-02  6.65098652e-02  1.26342550e-02
  -2.39767469e-02 -5.97356223e-02  6.95904568e-02 -3.82252634e-02
  -6.62560761e-03  2.92405561e-02  2.26960331e-03 -4.14648540e-02
   8.01920667e-02 -6.46135733e-02 -1.74442902e-02  1.95663348e-02
   1.12075731e-02  2.58112550e-02  7.46341571e-02  7.66227916e-02
  -4.44425456e-02  8.00841674e-02 -7.66128525e-02 -8.10586661e-02
  -3.48564349e-02 -5.16221598e-02 -3.42749692e-02 -5.73450029e-02
  -1.37044936e-02 -7.89377764e-02  5.68366721e-02  6.71626627e-03
   1.31808221e-03  6.86610490e-03 -2.18165033e-02  5.56865558e-02
   1.40421167e-02 -7.31298327e-02 -4.91355360e-03  6.75549731e-02
  -6.93303198e-02  5.44423386e-02  5.37431315e-02  2.51523182e-02
  -5.86173646e-02  3.45510989e-02  2.48558819e-02 -2.78404616e-02
   4.68804315e-02 -4.82604094e-02 -3.72381993e-02  6.16323277e-02
  -7.58363008e-02 -2.17776708e-02  2.55153626e-02  7.66931102e-02
   2.39104554e-02  7.42731169e-02  1.71157122e-02 -5.65356761e-03
   2.86669210e-02  3.19677964e-02  5.72569147e-02  1.17552876e-02
  -4.09085490e-02 -7.47158602e-02 -3.37512493e-02  6.38650581e-02
  -2.14070901e-02 -6.49637505e-02 -1.11698955e-02  6.81921765e-02]
 [-2.17985176e-02 -4.11333181e-02  2.74834558e-02  3.49491015e-02
   6.79339990e-02 -6.52756989e-02  5.77532724e-02 -7.61108845e-03
   4.08787280e-02  6.92976043e-02 -5.92574254e-02 -2.51416452e-02
   2.11218894e-02 -7.20604435e-02  5.68861738e-02 -1.60947219e-02
  -4.82626148e-02 -1.71891004e-02 -8.15287232e-03  5.14382198e-02
  -3.43357138e-02 -9.16434079e-03 -7.63889328e-02  1.75394863e-02
   4.90113422e-02  2.88885012e-02  1.17558315e-02 -1.15670860e-02
  -5.94220906e-02  4.84097078e-02 -5.85165918e-02  7.69221112e-02
   4.25758958e-02  4.32290658e-02 -4.95057181e-02 -2.69194730e-02
  -7.88859352e-02 -1.96703002e-02 -4.78194393e-02 -2.69370899e-02
   3.39561179e-02 -1.94170251e-02 -5.20730019e-03  3.31391916e-02
  -5.14866933e-02  6.45079538e-02  4.57057431e-02 -7.65697286e-02
  -4.31427620e-02 -2.87639238e-02 -2.68269032e-02 -3.51088978e-02
   1.54154301e-02  3.89846191e-02 -1.98494494e-02  6.28273115e-02
   1.66136473e-02  1.89412683e-02 -1.92323662e-02 -4.33416739e-02
   2.91100368e-02  6.47057369e-02  5.10840863e-03 -4.18015905e-02
   3.36971208e-02  1.44109577e-02 -5.32758757e-02  5.29966429e-02
  -6.83740601e-02 -5.55705950e-02 -1.39596835e-02 -4.38756049e-02
   6.68020546e-03  8.11038837e-02  1.37786716e-02 -3.54626887e-02
   7.11296275e-02 -6.51205629e-02 -7.25472420e-02 -5.82274869e-02
  -6.28390163e-02  3.62926349e-02  4.80254814e-02 -2.04101838e-02
   1.05251223e-02  6.37741759e-02  7.57235214e-02  3.21190059e-03
   6.71944022e-03  5.52689508e-02  1.96142495e-03  7.96165392e-02
   4.20833528e-02 -7.26469904e-02 -4.65790816e-02  7.32427612e-02
  -4.53010686e-02 -9.59610939e-03 -5.23629524e-02 -4.29705530e-02
   6.87976703e-02  7.07273185e-03 -8.11883807e-03  5.47385961e-03
   5.12840077e-02 -6.09188154e-02  2.70653814e-02  7.40302727e-02
  -1.46772861e-02  2.55027488e-02 -3.64946984e-02 -3.92642729e-02
  -6.78476691e-03  5.86610958e-02 -2.65468061e-02  6.39738962e-02
   1.75938681e-02 -2.26644501e-02  1.40553862e-02 -2.94523649e-02
   5.55692390e-02 -7.54503310e-02  4.47480455e-02  3.13767940e-02
  -2.01845840e-02 -6.45578802e-02 -5.95986694e-02  7.53261894e-03]
 [-4.34767455e-03 -5.43537363e-02 -6.08790182e-02  4.17068526e-02
  -5.05680889e-02  4.55316976e-02  1.37657747e-02 -9.45694745e-03
   8.49375129e-03  5.78201488e-02 -3.31469290e-02 -4.57498357e-02
   5.78376129e-02 -1.68766901e-02  7.58326128e-02  5.98257035e-03
  -3.64330299e-02 -3.72773968e-02  4.65460643e-02 -6.54637814e-02
  -6.16077334e-03  1.48144737e-02 -3.08884867e-02  6.35233745e-02
  -6.33234531e-03  8.40382278e-03 -7.30335712e-03  2.34558508e-02
  -6.31604344e-02  2.18579173e-03  3.47399637e-02  6.96391836e-02
  -4.21450585e-02  6.42020181e-02 -6.24282658e-02 -2.77855583e-02
   7.80179724e-02  3.49811092e-02 -7.21215680e-02 -2.45059766e-02
  -1.61701292e-02 -6.86143339e-02 -4.24888954e-02  4.40128148e-03
   3.55211273e-02  7.64071271e-02  7.81269595e-02 -2.93298960e-02
   5.25877625e-03 -5.26891723e-02  4.93177846e-02 -3.44693400e-02
   4.41820845e-02  5.32501414e-02 -2.85888910e-02  6.30651787e-02
  -3.07574682e-02  1.62898004e-03 -1.26719251e-02 -2.17625499e-03
  -3.59721482e-03  5.73456287e-03  7.98214301e-02  8.09155405e-03
  -6.48389235e-02 -6.78074285e-02 -5.21844216e-02  5.63083068e-02
   4.61093560e-02  2.19701231e-02 -1.44461766e-02 -7.81576335e-02
   4.62377146e-02 -9.91380215e-03  5.75611964e-02 -5.54941706e-02
  -4.83695343e-02  5.72933033e-02  7.32162520e-02  5.29707000e-02
  -4.73339520e-02  6.43740222e-02 -2.54798345e-02  5.34433797e-02
   5.27345166e-02 -2.46905796e-02 -3.98515761e-02 -7.50772655e-03
  -7.78786764e-02 -2.60121375e-03  6.37748912e-02 -1.61804333e-02
  -5.15304208e-02  3.02750766e-02 -1.26144662e-02  5.82304969e-02
   2.65488327e-02 -4.07736264e-02  1.20042339e-02 -8.14262033e-03
   2.02152506e-02  2.64196396e-02  3.80243734e-02  5.49469516e-02
   1.36609972e-02 -5.96376918e-02  6.79406151e-02  6.39997497e-02
   6.13934025e-02 -2.81349644e-02 -6.17374070e-02  3.64234373e-02
  -7.99948722e-02  7.28675053e-02 -6.41610548e-02  6.35083541e-02
  -1.62918791e-02  6.61206469e-02  4.34200317e-02  5.11689484e-03
   4.28341329e-04 -6.81040362e-02 -8.05876255e-02  2.42637843e-03
   7.57807121e-02 -7.86215961e-02 -6.23649359e-02  4.36650291e-02]
 [-2.25242265e-02  2.22939476e-02 -2.78227851e-02 -3.45231406e-02
  -6.24784119e-02  2.72778347e-02  3.50810289e-02 -8.95442814e-03
  -2.61013210e-03 -5.65767102e-02  6.27003610e-04 -3.46361138e-02
  -1.51477680e-02  7.12628588e-02  4.29620072e-02 -1.82288066e-02
   1.33374929e-02 -6.25782311e-02 -7.61489421e-02  5.70987836e-02
   7.28629604e-02  6.94335029e-02 -5.04532978e-02 -3.58961783e-02
  -6.19997680e-02 -4.17713448e-02 -7.30029494e-02  2.82336473e-02
   1.61746666e-02  6.46092221e-02 -5.05980253e-02  2.52524540e-02
   8.02100450e-03  5.92846200e-02  1.84085891e-02 -4.00115028e-02
  -2.38765739e-02 -4.50923517e-02 -1.22387856e-02 -5.63694425e-02
  -6.89460263e-02 -5.85318729e-02 -6.69950098e-02 -7.00665265e-03
   2.55467221e-02 -4.92256805e-02  4.87540588e-02 -7.71945491e-02
   4.86937389e-02 -2.77482346e-02  6.39495775e-02 -3.38748805e-02
   5.40376529e-02  7.23422244e-02 -9.29696858e-03 -1.74725205e-02
   5.23285344e-02  2.62093917e-02  3.05527747e-02 -1.13200396e-02
   4.91689965e-02 -3.76494266e-02  3.91798392e-02 -8.04726034e-02
  -3.36016901e-02 -6.97967038e-02 -1.32105723e-02  6.20491430e-02
  -4.83390391e-02  1.73486173e-02 -6.37212843e-02  2.54867375e-02
  -7.90763944e-02  6.99825361e-02  2.51778886e-02 -7.10951090e-02
  -8.09274167e-02  7.12005123e-02  1.62516013e-02 -4.19595279e-02
   7.93142840e-02  4.19731960e-02  5.67935631e-02  3.05606425e-02
   7.16555491e-02  2.43024826e-02 -4.41504605e-02 -2.86885425e-02
  -5.15512861e-02  3.31609473e-02 -2.71453075e-02  4.24612015e-02
  -5.98593652e-02  3.41866314e-02  3.15773487e-03  2.81618610e-02
  -6.79727495e-02 -7.80456290e-02  4.78581116e-02  5.24523333e-02
  -1.82280093e-02  4.56090346e-02  1.76608562e-02 -5.28662130e-02
   4.96418253e-02  4.53935489e-02  2.14187130e-02  3.91639024e-02
   5.25125936e-02 -1.89992413e-02  8.03966448e-02  7.03293160e-02
  -4.00168784e-02 -1.94279142e-02 -2.86747143e-02  6.72754645e-03
  -4.95136864e-02 -8.19913298e-03  7.00922310e-03 -4.37826067e-02
  -1.19809657e-02 -7.12223947e-02 -7.88546652e-02 -6.78561628e-03
   4.23587263e-02 -9.10847634e-03 -7.80981034e-03 -1.55384019e-02]
 [ 2.51061469e-03  7.83623084e-02  7.84114227e-02  1.66387334e-02
   8.07640329e-02 -4.85059284e-02 -2.82816067e-02 -9.10431147e-04
  -7.05371425e-02  5.89900389e-02  3.90950218e-02 -9.92752612e-03
   7.48298243e-02  7.34744444e-02 -4.57858630e-02 -9.64211673e-03
   2.64206007e-02 -4.93775271e-02  7.23509416e-02 -5.92873022e-02
   2.45231315e-02 -6.79146945e-02 -4.76476550e-03 -1.84552968e-02
   6.16770908e-02 -9.06664878e-03  6.67244121e-02  1.22457817e-02
  -2.56176591e-02  2.87139118e-02  1.69139504e-02 -4.40222770e-03
   7.04175010e-02 -1.15744397e-02 -4.47454415e-02 -2.66230106e-03
   4.19351831e-02  5.76832071e-02  1.00437552e-03  3.62661406e-02
  -5.49607798e-02 -2.72263736e-02  6.34629503e-02  2.13981196e-02
   1.37706324e-02  2.67540365e-02 -7.91794509e-02  5.30779138e-02
  -1.27468184e-02 -3.78182493e-02 -3.79941911e-02 -1.80623382e-02
  -2.86097564e-02 -5.53040206e-03 -8.32059234e-03 -1.05188340e-02
  -5.10322824e-02  6.89831898e-02 -5.73509000e-02  3.45162749e-02
  -6.11692071e-02 -5.45637086e-02 -3.72320674e-02  5.08399382e-02
   6.98720887e-02 -7.63527527e-02 -4.91249487e-02 -7.48441145e-02
   2.12179422e-02 -5.71697764e-02 -3.46080139e-02  3.67412195e-02
  -5.37095368e-02  6.57063052e-02 -4.80448641e-02 -3.67056392e-02
   6.79490790e-02 -2.93930732e-02  6.43854812e-02 -8.72650743e-03
   3.55022773e-02  3.35729346e-02 -7.58907050e-02  5.83884940e-02
   1.86189264e-03  2.44801193e-02  6.73918426e-03  2.00439319e-02
   5.74433878e-02 -4.23741788e-02  3.47918645e-02  3.33220735e-02
  -7.35510737e-02 -7.45181069e-02 -5.76406643e-02  7.86235854e-02
  -4.97062951e-02 -5.52539527e-03  4.19093668e-02 -6.29158318e-03
  -2.02909037e-02  1.58398077e-02  4.23253477e-02 -5.83393574e-02
   3.74383330e-02 -2.82602161e-02 -7.95345604e-02 -2.69634314e-02
   8.01884308e-02 -8.54693353e-04  9.75427777e-03  1.63976401e-02
   2.43012458e-02 -3.70562226e-02 -3.08915228e-02  1.65878162e-02
   5.27352095e-04 -4.50876504e-02 -2.82351561e-02 -5.27038425e-03
  -6.02956973e-02  6.62714019e-02  6.10351562e-03  4.83856574e-02
   7.37051293e-02  5.99490851e-03  6.35477901e-03  4.56961170e-02]
 [-6.67994991e-02 -2.16182843e-02 -1.26252249e-02 -2.82842740e-02
   3.70500907e-02 -3.64444181e-02  3.73594314e-02  6.15462735e-02
  -7.74338767e-02 -4.72585112e-02 -5.58933727e-02 -3.99924181e-02
  -1.61032751e-02 -1.30203813e-02 -6.45946190e-02  8.90820473e-03
   6.40462711e-02 -4.05746698e-03  6.58118650e-02  4.41204980e-02
  -1.78671405e-02 -4.26009595e-02  3.71876881e-02 -1.66747943e-02
   7.85677209e-02  3.38148177e-02 -3.80061418e-02  3.83691788e-02
  -3.76308411e-02 -4.76821549e-02  2.98336372e-02 -4.13767099e-02
   5.88998422e-02  2.11448073e-02  8.10198113e-02  3.28145400e-02
   9.46134329e-03 -3.31581272e-02  2.78639793e-03 -1.23884231e-02
  -4.45711277e-02 -2.53789648e-02 -5.40991277e-02 -5.46885356e-02
  -4.55828756e-03  5.53565994e-02  7.37431273e-02 -6.53535873e-03
  -6.69679120e-02 -6.96700513e-02  1.42927617e-02 -8.04006830e-02
  -4.83770184e-02 -7.24393576e-02 -5.00729494e-02 -6.43318295e-02
  -2.82435678e-02  4.31870669e-02  3.51322442e-03  6.05714321e-03
  -4.05271016e-02  1.91310123e-02 -7.05549344e-02  3.03503126e-03
  -3.33175883e-02 -1.59177408e-02  3.07468548e-02  5.40896878e-02
   4.55110446e-02  2.20445767e-02  1.49557590e-02 -8.03909600e-02
  -7.96989948e-02  9.33233649e-03 -1.80627480e-02 -5.22718877e-02
   3.42779681e-02 -7.34732002e-02 -3.50859426e-02 -2.09660083e-03
  -6.31858632e-02 -4.38958518e-02  2.37145796e-02  5.12356088e-02
   7.51585737e-02  6.63964823e-02 -2.61617228e-02  3.89018878e-02
   2.74777338e-02  7.33389333e-02  4.23877910e-02 -4.75854650e-02
  -5.50136343e-02  2.51821429e-02 -1.45753697e-02  2.53738016e-02
   2.59608552e-02 -9.04781371e-03 -5.24761602e-02 -3.69899534e-02
   5.29577360e-02 -7.75638521e-02  6.17187247e-02  2.26240158e-02
   5.28012589e-02 -5.80676645e-03  4.47318330e-02  6.60837069e-02
   5.36487624e-02 -5.45417219e-02  5.77541664e-02  2.03304291e-02
  -2.86096595e-02  3.02990004e-02 -4.21058424e-02 -1.96059048e-03
  -3.90870348e-02 -2.88363844e-02  5.35235181e-02 -1.75970048e-02
   1.79689154e-02 -1.08648986e-02 -4.29260172e-02  4.36749905e-02
  -2.72197984e-02 -1.17882416e-02  6.28781095e-02  4.28356975e-03]
 [ 5.41642383e-02  2.75734216e-02  5.06642461e-03 -3.17324288e-02
   3.24192643e-02 -6.92380741e-02 -1.92657858e-03  7.28207603e-02
   8.08191225e-02 -8.00114125e-03 -1.71216503e-02  6.36237934e-02
   3.13095748e-02  1.80919096e-02  6.59186020e-02  3.47517356e-02
   7.18280673e-04  5.67210540e-02  5.22301421e-02  7.82788321e-02
  -7.82321617e-02  5.64116314e-02  1.93744078e-02  8.02209601e-02
  -1.18289664e-02  7.14335963e-02 -3.99126448e-02 -2.27732845e-02
  -3.69400010e-02 -6.21447861e-02  3.84240448e-02  6.28308132e-02
   3.63735855e-02 -7.99472034e-02  2.07585990e-02  4.53585386e-03
  -7.38524050e-02  3.32188681e-02 -2.54689679e-02 -7.36639127e-02
   1.71458200e-02  8.90652835e-03 -1.19335502e-02 -4.78697196e-02
  -6.12320378e-02  4.77840006e-03 -4.27560732e-02 -7.72334784e-02
   2.40346044e-02 -6.24024868e-02 -4.81005386e-02 -6.40143156e-02
  -4.27540205e-02 -7.98616484e-02  5.01161143e-02  2.90400311e-02
  -7.99032822e-02  4.98938635e-02 -5.36979511e-02 -1.01009756e-03
  -6.92879483e-02 -7.49053955e-02 -5.00985906e-02  5.30404523e-02
   8.01771060e-02  7.70585760e-02 -8.17678869e-04 -2.93045044e-02
   8.09397325e-02  5.38224652e-02 -5.38263991e-02 -5.75400665e-02
  -3.59153003e-03 -2.57105790e-02 -2.30694525e-02  7.39727095e-02
   3.23457643e-02  6.77467659e-02 -7.01887831e-02 -3.29805166e-03
  -2.68144086e-02  1.00083426e-02  5.88785931e-02 -1.41635090e-02
   4.52700630e-02 -4.01116945e-02 -2.55517736e-02 -3.79237533e-03
  -6.76313713e-02 -1.03589296e-02 -6.80280626e-02  4.24436778e-02
   4.50785235e-02  3.95499170e-02  7.32343420e-02 -1.56302601e-02
   4.37955856e-02  6.92493543e-02 -4.13353257e-02 -3.65494452e-02
   6.23393282e-02  6.02261797e-02  7.44093880e-02 -2.74860300e-02
  -5.39591946e-02 -8.37609172e-03 -6.51107579e-02  3.19439098e-02
   6.06706813e-02 -2.67450437e-02 -4.18624692e-02 -2.70269811e-04
  -2.66617350e-02  4.75080535e-02  7.70151094e-02 -8.07061046e-03
   7.70936832e-02 -1.09458268e-02  6.99514970e-02 -5.94646931e-02
   3.25503945e-03  2.12650150e-02 -6.35988116e-02 -8.06682482e-02
   2.81837508e-02 -3.54806744e-02  8.09431598e-02  7.53436163e-02]
 [ 2.93299705e-02  4.72622290e-02 -2.66067348e-02 -4.84321788e-02
   7.49004409e-02  2.56138891e-02  1.42810419e-02 -5.23116663e-02
   2.53658909e-02 -3.25706825e-02  3.61278616e-02 -5.90512529e-02
   2.78805122e-02 -6.62893206e-02 -1.02231726e-02  3.18257399e-02
   7.17511028e-02  4.66665700e-02 -5.22471145e-02 -2.32796539e-02
  -5.72972111e-02  1.43158361e-02  4.65016291e-02  7.16362149e-02
   4.66335341e-02  3.07153612e-02  7.00032637e-02  6.37659729e-02
  -6.05699643e-02  4.53386381e-02  5.84998913e-02  1.63972620e-02
  -1.39224753e-02 -4.14296389e-02  8.47532004e-02 -2.62305178e-02
   6.71926215e-02 -7.22201765e-02  7.46065304e-02  4.26060259e-02
   3.13301757e-03  4.41361889e-02 -3.37462425e-02  8.17004666e-02
   4.05871728e-03  5.21195345e-02  2.01315172e-02 -2.46616174e-02
   8.19013715e-02  1.04547003e-02  5.29071316e-02 -1.13775833e-02
  -4.51822728e-02  2.72783712e-02 -3.51299606e-02  2.28012651e-02
  -3.22400965e-02  4.97359037e-02 -2.83947363e-02  3.44927758e-02
   6.50536045e-02 -5.60572781e-02 -1.92444324e-02 -9.33033973e-03
  -6.10369369e-02 -7.09676817e-02 -5.14452942e-02 -4.33094613e-02
   7.92356357e-02  7.72251561e-03  5.64947799e-02  4.26678136e-02
  -3.78984176e-02  1.29902503e-02  1.44772157e-02  5.08827157e-02
   4.18880954e-02 -4.09119986e-02  5.93256615e-02  4.99507971e-02
  -5.67186549e-02 -3.42568904e-02 -4.79903705e-02  4.58062515e-02
   3.50406542e-02  3.34759504e-02  4.21601161e-03  7.57598951e-02
  -4.38779555e-02  9.03745666e-02  5.00483885e-02 -5.01247719e-02
   2.50865519e-02  5.01494780e-02 -6.43179864e-02 -2.65912041e-02
  -2.40521058e-02  8.31224173e-02 -1.36797130e-03  3.14819366e-02
  -5.21357767e-02  6.02681227e-02 -7.59882703e-02  3.25086713e-02
  -6.25233054e-02 -1.73320100e-02  3.02185118e-02  5.57303280e-02
  -6.47663027e-02  5.37609905e-02 -4.99374047e-02 -7.14508966e-02
  -7.00288266e-03 -3.53223123e-02 -1.36557072e-02 -7.43341520e-02
  -2.42557786e-02  5.78169189e-02 -1.25369700e-02 -5.39332554e-02
   6.10481128e-02 -4.28541861e-02 -7.74323121e-02  6.07457720e-02
  -4.19243006e-03  3.96781266e-02  8.56376160e-03  7.75108337e-02]
 [ 4.70187515e-03 -7.12352693e-02  3.71913686e-02 -9.30727199e-02
   5.64607754e-02  3.26886922e-02 -3.16800401e-02 -8.11987463e-03
   4.64839637e-02 -3.68192270e-02  7.01598972e-02 -5.21969721e-02
  -5.52104712e-02 -1.57521646e-02  4.58783582e-02 -7.16031045e-02
  -2.93810498e-02  5.79721108e-02  2.10062824e-02  8.58705305e-03
   1.72750819e-02  1.94713250e-02 -2.69877128e-02 -1.80842131e-02
   1.55888572e-02  8.83942842e-03  4.57620397e-02 -7.77353942e-02
   1.76897533e-02  7.97025263e-02  9.04321391e-03  1.97619721e-02
  -2.17925422e-02  1.39481574e-02  9.56274942e-03 -6.89151585e-02
  -6.98349252e-02 -4.75146901e-03  3.53621715e-03  7.13383825e-03
   6.65250933e-03  6.24593422e-02  6.89155087e-02  5.93069084e-02
  -1.33599434e-03 -2.86659151e-02  7.13691860e-02  1.54387532e-02
  -4.78354469e-02  9.80030149e-02 -3.39508131e-02 -1.01821199e-01
  -4.99542058e-02  4.57803570e-02  1.45396646e-02  2.92100757e-02
  -6.30638376e-02  1.62078198e-02 -6.07776567e-02  8.24269652e-02
   7.92117044e-02 -3.13564055e-02 -1.12737417e-02  7.81688318e-02
   8.29945225e-03 -9.67825502e-02 -5.06256968e-02  6.31069206e-03
   7.65892118e-02  7.86323920e-02 -6.75257072e-02 -6.28999621e-03
  -7.99420401e-02 -5.89390211e-02 -9.45184305e-02 -9.54909436e-03
   4.36300598e-03 -9.66003388e-02  2.61403322e-02 -8.43168888e-03
   6.44706860e-02  5.22856303e-02  3.70399207e-02  5.65187559e-02
   7.39717335e-02 -1.73292495e-02 -2.72083152e-02  7.06185624e-02
  -7.79072046e-02  6.05343021e-02 -2.14433391e-02  3.81704271e-02
  -8.01693574e-02 -3.47923264e-02 -3.36302519e-02 -1.19543128e-01
   7.64859468e-02  3.03065106e-02  3.41484621e-02 -3.67980786e-02
  -6.65802462e-03 -5.57982773e-02  6.95417076e-02 -6.10811636e-02
   5.97178079e-02 -1.11216716e-02  2.99881701e-03 -3.95065034e-03
   6.22765236e-02  3.33421603e-02 -8.68823677e-02 -3.27286534e-02
   2.85347961e-02  5.57169728e-02 -2.93469839e-02  4.02670689e-02
   6.56760763e-03  1.08016096e-01 -3.10178008e-02 -3.42610106e-02
  -4.17459235e-02 -3.37412506e-02  7.89968744e-02  8.39123968e-03
   3.48196030e-02  4.45351414e-02 -4.08185124e-02  1.14438169e-01]
 [ 2.83620358e-02  3.06254737e-02  3.97390053e-02 -1.88168678e-02
   8.05061087e-02 -5.04251905e-02  5.56385294e-02 -2.46431846e-02
   6.43600058e-03  5.85657582e-02  8.11340511e-02  6.49682283e-02
   1.16493545e-01 -1.74155071e-01  2.52126362e-02  2.55078990e-02
   1.87864915e-01 -9.91002470e-03 -6.39583617e-02  1.15474693e-01
   4.31929454e-02 -6.21793270e-02 -9.32681635e-02  1.68517947e-01
  -5.04496619e-02  1.13324024e-01  1.11092769e-01 -1.49715632e-01
  -6.26692623e-02  1.22113511e-01 -2.68291552e-02  7.58483037e-02
   3.84993628e-02  3.75415348e-02  1.00254290e-01 -1.22669786e-01
  -6.39124662e-02  1.08926846e-02  8.23390484e-02 -1.04007460e-01
  -6.37110323e-02  6.75702021e-02 -2.97357887e-02 -3.51601727e-02
   6.49580136e-02  1.02945454e-01  4.23722677e-02  1.11406595e-01
   1.20411500e-01  3.28632966e-02 -4.55882959e-02 -6.66496605e-02
  -7.52758160e-02  1.81798398e-01  3.32152769e-02  4.07007784e-02
  -6.13886416e-02  4.70408984e-02 -1.38656855e-01  6.03863895e-02
   1.96969345e-01 -5.92587097e-03 -1.03311017e-02 -1.73440799e-02
   1.38564721e-01 -1.90622643e-01 -6.74637482e-02  4.53762077e-02
   1.02003999e-02  2.55045332e-02  9.30526406e-02 -7.15121105e-02
   3.01963836e-03  1.12431057e-01 -1.08347021e-01  1.81889459e-01
  -6.39838502e-02 -2.67689433e-02  8.56528878e-02 -1.88708171e-01
   4.38116118e-02 -1.29424796e-01  2.11030804e-02  5.05641624e-02
  -1.53577635e-02 -1.99687555e-01 -1.63820282e-01  9.87024084e-02
   1.13980167e-01  2.78750155e-02  8.88000801e-02 -3.73600349e-02
   3.54654863e-02 -1.26610063e-02  2.24457681e-03 -1.99654356e-01
  -1.52999625e-01  8.12880043e-03 -5.96021861e-02  5.11652976e-03
   4.53929082e-02  6.27860576e-02  7.93504193e-02  7.96060339e-02
  -2.97413557e-04  7.26180971e-02  2.34059822e-02 -2.52940841e-02
  -4.03430220e-03 -7.90607110e-02 -8.27442110e-02 -8.74898732e-02
   9.83830094e-02 -4.60104570e-02  1.49706185e-01 -1.96359396e-01
  -8.83482248e-02  1.47871226e-01  2.14708950e-02 -5.26258461e-02
   6.22624233e-02 -5.96241057e-02  4.19288799e-02  1.86993629e-02
   1.29262745e-01  1.71590194e-01  5.09507023e-02  1.28889814e-01]
 [ 3.29331942e-02  2.59956368e-03 -5.38764782e-02  6.66521210e-03
   2.20658188e-03 -1.89959034e-02  4.08792347e-02  8.18965882e-02
   9.09798965e-02  1.20313987e-02  1.24980032e-01  1.85171917e-01
   1.81059055e-02 -7.73207024e-02  3.56901363e-02  9.87886935e-02
   1.58608466e-01 -3.07855720e-04 -6.71882853e-02  1.72364444e-01
   3.86729427e-02  9.85155553e-02 -5.05888797e-02  2.17783332e-01
  -5.88788763e-02  9.47044045e-02  1.99792624e-01 -5.09693939e-03
   5.41582517e-02  4.49464098e-02 -7.98662826e-02  4.53522876e-02
  -9.10542831e-02 -6.93745464e-02  6.14899062e-02 -9.84260663e-02
  -5.54184020e-02 -6.78112879e-02  3.54912616e-02 -1.15542799e-01
   7.30333477e-02 -6.74145995e-03  6.07295930e-02  3.70233762e-03
   3.25611867e-02  1.44233271e-01  9.36913863e-02  9.46007967e-02
  -1.30825136e-02  4.33916375e-02  1.22924964e-03 -1.38498798e-01
  -5.99872991e-02  1.47994637e-01 -2.20578052e-02  3.63328531e-02
  -1.26856482e-02  6.46480992e-02 -1.04840621e-01  1.70265079e-01
   1.68810830e-01 -1.31118493e-02  4.60665263e-02 -3.52474637e-02
   1.27777740e-01 -1.02914914e-01 -9.27449316e-02  1.29243210e-01
   1.60509616e-01  1.44279227e-01 -2.76879687e-02  4.04907838e-02
  -1.93857104e-02  7.20831379e-02 -1.92624643e-01  7.92544931e-02
  -8.80959257e-03 -3.17362957e-02  6.18887395e-02 -1.27714962e-01
  -7.54904747e-02 -1.56596191e-02  4.26167771e-02  3.55568668e-03
   1.04038522e-01 -1.74412474e-01 -1.82007536e-01  2.57180065e-01
   8.20109174e-02  1.32686406e-01  1.01791464e-01 -2.91146692e-02
  -1.23900153e-01  2.94643324e-02 -7.33769163e-02 -7.47743323e-02
  -1.76326022e-01  1.03293404e-01 -1.92756020e-02 -2.03545801e-02
   6.17071614e-03  5.00987098e-02 -1.22230162e-03  1.62886512e-02
  -8.09726492e-02  3.78029644e-02 -6.87010735e-02 -2.77569704e-02
  -5.00331968e-02 -1.59937888e-01 -1.21500574e-01 -9.30843279e-02
   1.65295750e-01 -2.62372550e-02  2.12534413e-01 -7.91551694e-02
   8.99671018e-03  2.18728334e-01  1.39361188e-01 -2.51436811e-02
  -1.29837943e-02  2.55841706e-02 -1.21571347e-02  4.84425202e-02
   9.97287557e-02  1.96253762e-01  3.42338718e-02  7.37945065e-02]
 [-8.00711736e-02 -3.22702117e-02 -7.52509907e-02 -6.90547973e-02
  -5.70037104e-02 -5.16544506e-02  7.91804418e-02  3.65682095e-02
  -2.05015186e-02  1.01561263e-01  5.25108203e-02  1.17577687e-01
   5.50998300e-02 -4.66571115e-02 -6.43336177e-02  9.61821377e-02
   5.10473549e-02 -1.27097666e-02 -6.24685474e-02  1.50662675e-01
   1.65307462e-01  3.14353555e-02 -2.84271408e-02  1.83245465e-01
   2.77198851e-02  1.32659882e-01  2.05125377e-01 -1.12985067e-01
   2.86578964e-02  6.04370683e-02 -1.48972660e-01  5.96556142e-02
   2.88463291e-03 -7.29433522e-02  2.32888740e-02  8.80423188e-03
  -2.92764511e-02 -3.75381932e-02  4.05660048e-02 -1.19177945e-01
  -4.71568964e-02  7.56176980e-03  4.92918193e-02 -3.93229490e-03
   6.19145855e-02  1.71194077e-01  8.26747566e-02  6.98965415e-02
   7.70334825e-02  2.36459402e-03  1.11647524e-01  3.42439339e-02
  -4.23841551e-02  8.88274461e-02  3.95462327e-02  3.41019034e-03
   1.17053706e-02  8.06299672e-02 -8.80215466e-02  1.50208682e-01
   1.37490690e-01  9.60006043e-02  4.34354693e-03 -2.43490431e-02
   1.11151718e-01 -7.86010474e-02 -2.82745436e-02  6.76633045e-02
   3.83705236e-02  8.58357772e-02  6.59524053e-02 -8.35989639e-02
  -1.07090093e-01 -2.28761192e-02 -1.31438836e-01  9.31690112e-02
  -1.15254454e-01 -1.39174327e-01 -9.11024306e-03 -7.40989372e-02
   7.39332065e-02  3.30637284e-02  8.83608162e-02  7.48771429e-03
   2.17153989e-02 -1.92814127e-01 -9.90876183e-02  1.83567375e-01
   9.56884213e-03  4.95269708e-02  8.77946168e-02 -1.08539276e-01
   1.64238084e-02  7.74106309e-02 -3.00616678e-02 -1.03655264e-01
  -7.10944533e-02  3.99923958e-02  3.71190198e-02 -9.07903910e-02
  -7.55560072e-03 -6.05899561e-03  1.34622246e-01 -8.36253688e-02
   3.90726738e-02  7.88445771e-02 -1.52676483e-04 -9.50495433e-03
  -9.28509384e-02 -8.47038627e-02 -8.43777284e-02 -5.39976768e-02
   2.98821684e-02 -9.09583643e-02  1.28029376e-01 -1.55796632e-01
   5.24089485e-03  1.42503515e-01  1.25228211e-01  5.01504866e-04
   5.26424833e-02 -7.13928342e-02 -1.22639835e-02 -4.17444259e-02
  -1.73618738e-03  6.20144643e-02  3.44503559e-02  2.09205851e-01]
 [-1.31792665e-01 -8.98546278e-02 -1.27986073e-01 -6.91816956e-02
  -1.16585933e-01 -1.14209749e-01 -1.96132530e-02  1.25495046e-02
  -1.50803253e-02  1.55019060e-01  2.72309203e-02  1.64707884e-01
   1.23621635e-01 -1.58212781e-01 -5.92588782e-02  6.99524358e-02
   1.24540031e-01  5.84022589e-02 -3.24265473e-02  1.88302636e-01
   5.95404319e-02  8.60078409e-02 -7.57801160e-02  2.20345065e-01
  -1.95939839e-03  1.51644237e-02  2.29770407e-01 -9.15822536e-02
   8.91711265e-02  4.99742553e-02 -1.66260991e-02  1.18320167e-01
   6.26943558e-02  4.97825667e-02  7.87748396e-02 -1.04538970e-01
  -6.45739362e-02  2.11470891e-02  1.03447109e-01 -1.21112704e-01
   3.01679503e-02 -1.21983606e-02  6.30932003e-02  4.52475362e-02
   1.41922697e-01  8.32240880e-02  7.91502222e-02  1.16572276e-01
   7.24479333e-02  6.26056492e-02 -1.08773438e-02 -1.06196851e-01
   2.57636253e-02  1.78448021e-01  8.94840956e-02  6.07778467e-02
  -1.12725444e-01  1.28262877e-01 -1.21186867e-01  8.54500532e-02
   2.19278201e-01  9.03430302e-03  3.24994177e-02  2.57530231e-02
   8.01171213e-02 -9.48337391e-02 -1.29077107e-01  1.38847396e-01
   1.41979665e-01  5.26798703e-02 -5.35189770e-02 -1.05966859e-01
  -6.84225885e-03  9.34832916e-02 -6.90394491e-02  9.74258035e-02
  -7.18115270e-02 -1.17850296e-01  2.09591929e-02 -3.05414349e-02
  -1.36629120e-02  3.45714316e-02 -1.35082640e-02  5.48473448e-02
   8.98718610e-02 -1.40776217e-01 -7.85322562e-02  1.24960996e-01
  -5.24819903e-02  6.99635819e-02  1.64076477e-01 -4.91066016e-02
  -9.80638340e-02 -7.29983523e-02 -8.35256055e-02 -1.32941544e-01
  -1.10616498e-01  1.59461111e-01  1.47181218e-02  1.18212830e-02
  -3.39868106e-02 -1.32309338e-02  1.20710224e-01 -4.52677570e-02
  -1.01238355e-01  5.16686440e-02 -9.98559594e-02  4.14856803e-03
  -9.19424072e-02 -1.17562246e-02 -1.11527696e-01 -1.36831954e-01
   1.25388548e-01 -1.16704568e-01  2.04230726e-01 -1.14677057e-01
  -2.48899385e-02  2.10685655e-01  1.49786219e-01  5.09413937e-03
  -3.00954506e-02 -9.62938822e-04 -6.43964037e-02 -9.18294787e-02
   4.31557372e-02  7.24346340e-02  1.43545702e-01  2.25469768e-01]
 [-8.51347372e-02 -1.14723332e-02 -1.78709440e-02  1.21948197e-02
  -4.12973464e-02 -6.85216626e-03 -1.03132343e-02  7.03101009e-02
  -3.52577567e-02  7.27358833e-02  9.61298943e-02  2.37773508e-01
   1.85509682e-01 -2.26229966e-01  4.94274236e-02 -2.56228372e-02
   9.90455747e-02 -4.97361235e-02 -5.69788590e-02  9.17067304e-02
   1.64601132e-02 -9.05381739e-02 -1.77691758e-01  9.65992287e-02
  -6.80338219e-02 -6.30041733e-02  1.67729467e-01 -1.27465352e-01
   1.11495659e-01 -5.14694266e-02 -1.56073030e-02  4.59656604e-02
   4.55076806e-02  4.01682518e-02  5.65735213e-02 -7.21661672e-02
  -1.10504091e-01  3.37106027e-02  1.58223405e-01 -1.34484246e-01
   6.56643370e-03  7.19468400e-04 -7.17762336e-02  1.82875633e-01
   5.31947315e-02  2.17168286e-01  4.90614697e-02  3.36352526e-03
   1.12966403e-01  2.75009964e-02  6.43093213e-02 -2.36545037e-02
   8.08048025e-02  2.76605301e-02 -1.02584595e-02  5.43110725e-03
  -8.61598477e-02 -2.08020657e-02 -2.03590900e-01  3.59124653e-02
   3.06900084e-01  7.56322667e-02 -8.71727988e-02  1.25088409e-01
   3.03561054e-02 -6.14875928e-02 -1.30896971e-01  6.59893919e-03
   1.22939527e-01  1.04935065e-01 -3.72040458e-02 -8.95337611e-02
  -3.10908966e-02  1.72156855e-01 -1.44348949e-01  2.21443355e-01
  -6.56200945e-02 -2.50119995e-02  9.00885165e-02  5.30840568e-02
   1.67326536e-02  7.85293132e-02 -1.54276220e-02  7.73058906e-02
   6.06702007e-02 -2.59216037e-02  8.43770802e-02  3.40535134e-01
  -4.93689366e-02  5.08684628e-02  5.92481643e-02  2.72624586e-02
   8.97243842e-02 -7.27347210e-02 -9.53742042e-02 -6.31715432e-02
  -5.59670590e-02  6.91321865e-02 -7.82670751e-02 -8.02723691e-02
  -7.02499822e-02  7.60477856e-02  7.06806034e-02 -1.90782323e-02
   1.10055180e-02 -1.69295184e-02 -1.70311719e-01 -9.59759504e-02
  -7.89659321e-02 -6.22477941e-02 -2.39156082e-01 -9.92949978e-02
   3.47390883e-02 -6.21986464e-02  1.31725341e-01 -6.42228127e-02
  -2.30468124e-01  7.35762939e-02  1.08691849e-01  9.75586474e-02
   7.49363527e-02 -1.00394666e-01 -5.76508343e-02  7.37766773e-02
   4.85867262e-02  1.10461503e-01  1.26087755e-01  1.39377087e-01]
 [ 3.09120715e-02  8.14493373e-02  1.91415474e-02  1.06006481e-01
  -4.09861505e-02 -1.74403470e-02  1.42399535e-01  1.21206485e-01
  -5.36977239e-02  5.84644824e-02  2.74643162e-03  1.98917896e-01
   4.66794260e-02 -1.07818216e-01 -2.03254316e-02 -1.28507003e-01
   1.09532604e-03 -2.34745741e-02 -1.35173202e-01 -2.56965011e-02
   3.82514447e-02 -5.03673740e-02 -1.63464956e-02  1.40866831e-01
  -2.92355046e-02  3.84413376e-02  5.17095812e-02  7.52105713e-02
   9.26976725e-02  1.83165833e-01  6.88888356e-02  1.12028986e-01
   2.93769371e-02  5.92742115e-02 -1.98963135e-02 -1.52627770e-02
  -2.23889966e-02  2.81539597e-02  1.05037384e-01 -4.46565077e-02
   9.07075033e-02 -8.44244733e-02 -8.20132717e-02  5.73394895e-02
   3.70855741e-02  3.40742052e-01  1.82237640e-01 -1.23092728e-02
   1.74651042e-01 -5.69516197e-02  8.16399828e-02  1.20666675e-01
   1.22088425e-01  7.20100775e-02  8.48301426e-02  3.48100136e-03
   1.88701656e-02 -5.56018613e-02 -1.61499921e-02  4.66193967e-02
   1.90024152e-01  1.58404902e-01 -1.91921890e-01  5.57889976e-02
   4.66373675e-02 -7.08722547e-02 -2.68329326e-02  1.26541220e-02
   2.06476241e-01  2.12295920e-01  6.08073473e-02 -6.27146214e-02
   4.95575890e-02  2.41276920e-01 -1.32006004e-01  1.10380247e-01
  -4.90112640e-02 -8.55997875e-02  2.17880949e-01  4.27733436e-02
  -8.80678669e-02 -2.94803642e-02  4.20393459e-02 -1.06082950e-02
   1.26933873e-01 -8.77435692e-03  6.18141927e-02  1.47160843e-01
   1.05388761e-02  7.74532259e-02  1.32024258e-01  7.98975900e-02
  -5.87178357e-02  4.31253873e-02 -7.71027505e-02  1.62102386e-01
   2.93307062e-02  1.58729479e-01  7.94880092e-04  3.77911218e-02
   9.29825529e-02  5.89207485e-02 -8.97030234e-02 -8.11308902e-03
  -5.18760532e-02  2.89077424e-02  9.05379653e-03 -7.58074876e-03
  -6.28810190e-03 -3.31601314e-02  8.31423476e-02 -4.27186005e-02
   6.04597442e-02 -9.50692967e-02  1.23366602e-01  5.76998256e-02
  -5.49700297e-03 -2.83518434e-02  4.87103732e-03  1.91962123e-01
   1.32764906e-01 -5.08031398e-02 -4.52141240e-02 -9.85284969e-02
  -2.02017397e-01  1.64370947e-02  4.47134823e-02  2.25915939e-01]
 [-5.64125516e-02  5.19515947e-02 -6.27208501e-02  5.09130098e-02
  -1.12293072e-01 -7.70575553e-02  2.36418899e-02  1.68186232e-01
  -5.60699441e-02  2.78009195e-03  6.51189387e-02  3.15919578e-01
   6.91299587e-02 -1.62303582e-01  4.95868810e-02 -8.68145227e-02
   9.38492268e-02  1.58483699e-01 -6.39788015e-03  1.80714563e-01
   1.44780576e-01 -3.88911366e-02 -1.65881872e-01  3.11474860e-01
   4.99509498e-02  1.05507135e-01  1.81424797e-01 -2.11060382e-02
   1.34945527e-01  1.30372569e-01  8.17664117e-02  1.75170556e-01
   1.05173007e-01  2.60422584e-02 -1.23878367e-01 -1.63082421e-01
  -1.93239972e-01  4.70462777e-02  6.80028647e-02 -1.99297518e-01
   9.35463831e-02 -6.13184273e-02  5.12252329e-03  6.99276701e-02
   7.08256736e-02  3.42075706e-01  1.04893737e-01  9.02776346e-02
   4.76964340e-02 -7.21031204e-02 -7.09749088e-02 -1.47753641e-01
   1.08350396e-01  6.79250732e-02  1.30936667e-01 -2.88927928e-02
  -2.60043424e-03  7.08981976e-03 -1.35863364e-01  2.98910663e-02
   2.19841853e-01  1.91456676e-01 -1.92863151e-01  1.18915521e-01
   2.03241244e-01 -2.69018352e-01 -9.58844274e-02  1.66446432e-01
   2.18817040e-01  1.94650888e-01 -2.73295362e-02 -7.89050832e-02
  -1.27376288e-01  2.27085918e-01 -1.68010332e-02  3.10513288e-01
  -2.52708402e-02 -2.22116694e-01  1.86917469e-01 -5.29957749e-02
  -2.79114153e-02  6.79218024e-02 -2.16448233e-01 -4.42738682e-02
   1.74764901e-01 -1.19715244e-01 -1.67736560e-01  3.01353276e-01
   1.02864943e-01  6.88100383e-02  8.66190568e-02  4.30618301e-02
  -7.45390207e-02 -7.11112022e-02 -1.36624593e-02  6.31540418e-02
  -1.35841221e-01  1.44953445e-01 -6.43222854e-02  8.09787810e-02
   5.74966483e-02  2.09507331e-01 -9.39046666e-02  1.38619626e-02
  -4.28109057e-02  1.60146117e-01  7.47286435e-03  8.86338130e-02
   6.98922500e-02 -1.66987583e-01 -1.20194284e-02 -1.59409836e-01
   3.21931131e-02 -1.69944063e-01  2.66907603e-01 -7.88778886e-02
  -2.47176021e-01  7.04748631e-02  3.65623645e-02  6.28388077e-02
   3.13087776e-02 -6.04721494e-02  3.23724523e-02 -1.79902211e-01
  -6.54053837e-02  3.07476044e-01  3.69457938e-02  4.49885011e-01]
 [-1.40374294e-02  1.65601596e-02  7.48037398e-02 -6.12922832e-02
  -8.60357285e-02 -2.32494646e-03  2.31140535e-02  2.28413746e-01
   5.69337346e-02  1.47403097e-02  1.38608143e-01  2.91943282e-01
   1.71559677e-01 -1.76666781e-01 -1.38000652e-01 -1.63414702e-02
   8.52217525e-02  1.88187107e-01 -1.06691234e-01  1.59320533e-01
   1.39356688e-01 -3.59158181e-02 -1.33492291e-01 -2.01028753e-02
   5.01055941e-02  4.20437902e-02  1.19233485e-02  2.05782223e-02
   7.70250484e-02  2.94560045e-01  1.07276008e-01  1.78341821e-01
  -6.77313656e-02 -2.65353266e-02 -1.78438529e-01 -1.25550479e-01
   6.28471822e-02 -5.96836545e-02  8.57789665e-02 -1.99542999e-01
   3.05133145e-02 -3.49381231e-02 -4.26480025e-02  1.75575376e-01
   7.72143826e-02  5.30821741e-01 -3.82680446e-02  3.94947901e-02
   2.15155989e-01  7.42547363e-02 -2.62649655e-01 -1.37716860e-01
   1.38966683e-02 -5.33565059e-02  1.65425856e-02 -7.18125552e-02
  -3.27724636e-01 -4.79816124e-02 -2.24396929e-01  6.25520870e-02
   3.20201010e-01  1.21393137e-01 -2.08965451e-01  6.95563480e-02
   1.56681046e-01 -6.93128556e-02 -1.12667352e-01  9.84502137e-02
   2.34339580e-01  3.76251310e-01  8.96150917e-02 -3.54037397e-02
  -8.85823369e-02  9.08048004e-02 -1.59496531e-01  2.39963070e-01
  -2.71627791e-02 -2.66825184e-02  2.97124982e-01 -2.31058955e-01
   5.47520481e-02 -2.07417272e-02 -1.00886993e-01 -1.19110316e-01
  -2.97968462e-02 -1.54465675e-01 -2.13103548e-01  1.01754948e-01
  -9.61783677e-02  6.85767084e-02  2.98768729e-01 -4.28676121e-02
  -1.46990135e-01 -2.09629182e-02 -7.58901536e-02  4.26040068e-02
  -6.45868406e-02  1.95450127e-01  3.17857489e-02  1.93500310e-01
  -7.58174211e-02  1.52485341e-01  5.57958968e-02 -8.08290169e-02
  -4.51537073e-02 -3.64686251e-02 -2.95355320e-02  5.68663590e-02
   1.22646376e-01 -1.26530990e-01  1.99521799e-02 -2.02404201e-01
   9.35451165e-02 -1.91596270e-01  3.21887672e-01 -6.27646074e-02
  -2.26902559e-01  8.65722597e-02  8.59616250e-02  1.91035762e-01
  -9.68763307e-02 -6.50232881e-02  1.11112669e-02 -6.57105222e-02
  -6.53115734e-02  1.89838260e-01 -9.48890820e-02  3.36897552e-01]
 [-3.17795463e-02 -2.95611806e-02 -6.07061945e-02  6.27665892e-02
   2.33388513e-01 -6.07388914e-02  1.17644407e-02 -1.12360910e-01
  -3.64795960e-02  1.11956891e-04  1.98929653e-01  3.60595495e-01
   8.75848010e-02  8.52681771e-02  1.31910890e-02  1.57459036e-01
  -1.35248899e-01  1.11858249e-01  8.47724676e-02 -1.37153521e-01
   1.85160145e-01 -3.07893693e-01  1.92577124e-01 -2.25780923e-02
   7.33306259e-03  2.02897102e-01 -1.79326802e-01 -2.14123335e-02
   5.86981475e-02  3.16919796e-02  1.46620885e-01  5.02686873e-02
  -4.65841107e-02  2.70670522e-02  2.79950052e-01 -1.58511132e-01
   2.08560824e-01 -1.21681690e-01  1.57072261e-01  4.88999784e-02
  -1.98891491e-01  2.77149975e-02  5.08288182e-02  1.02341153e-01
   9.97158810e-02  2.29690760e-01 -9.37086940e-02  9.46780071e-02
   1.09102324e-01  2.04504311e-01 -2.26880282e-01  6.94377422e-02
  -1.70662910e-01 -1.68429986e-01  1.12898901e-01  5.72804697e-02
   6.11912459e-03 -1.38667524e-01 -2.86673516e-01  1.08843729e-01
   1.33473456e-01 -1.13678344e-01 -2.96797544e-01  2.23593578e-01
   2.13212535e-01  1.29141780e-02  4.37525241e-03 -2.33377919e-01
  -4.22315858e-02  2.62887217e-02 -3.84576246e-02 -6.33831769e-02
  -7.83345010e-03 -1.06550790e-02 -2.17967257e-02 -1.27560392e-01
  -5.44438027e-02  1.16210930e-01  7.99899399e-02 -2.39607692e-01
   1.08813629e-01  1.16664901e-01 -4.53829719e-03  1.01576433e-01
  -3.97569120e-01 -1.97657555e-01  3.88046764e-02  1.93922427e-02
   2.26509064e-01 -1.53020293e-01  5.63747548e-02 -1.59690961e-01
  -2.74324447e-01 -3.06556858e-02 -1.52577311e-01  1.57230452e-01
  -7.32912198e-02  3.60782370e-02  2.42062807e-02  1.21690914e-01
  -2.17537522e-01 -1.56556919e-01 -3.42722498e-02  4.75270562e-02
  -5.39341895e-03 -1.68973774e-01  1.58130825e-02  1.01651646e-01
  -7.35487863e-02  2.74197217e-02  1.47793740e-01 -1.68827415e-01
   9.34560373e-02 -2.35033724e-02  8.24419037e-02  5.94485141e-02
  -2.50414997e-01 -5.57520241e-02 -2.90679365e-01  6.90676495e-02
   3.07895631e-01  3.42392526e-03  2.16995254e-02  1.75407350e-01
   2.25450411e-01  2.73484103e-02  1.51257768e-01  2.82576624e-02]
 [-7.84377232e-02 -6.72752336e-02 -3.41390930e-02 -5.95911145e-02
   1.67092204e-01 -6.34877160e-02  2.00143129e-01 -1.70124501e-01
  -2.40928680e-02 -4.04352602e-03  2.53595889e-01  1.54987171e-01
   1.33250505e-01 -1.82951748e-01 -6.37506619e-02  1.92340255e-01
   2.86760449e-01  2.68756002e-01 -1.81406885e-01 -6.39324561e-02
   3.13164443e-01 -1.94325715e-01 -1.69473529e-01 -7.48841390e-02
  -5.64964749e-02  1.99883938e-01  1.57043889e-01 -3.96768264e-02
   2.58206099e-01  1.51347309e-01 -1.57652467e-01  9.44150761e-02
  -2.16653943e-02 -2.65681650e-04  1.19766235e-01 -2.87495881e-01
  -1.17254861e-01 -9.59173068e-02  3.72860342e-01  1.17079258e-01
   1.78571388e-01  2.44602524e-02 -6.29894510e-02  9.74415988e-02
   1.22762136e-01  2.55909264e-01  2.72188842e-01  3.28260988e-01
   2.46908396e-01 -3.87476794e-02 -4.56398763e-02  1.36778697e-01
  -1.01503342e-01  6.81188107e-02  2.96110094e-01 -5.58980070e-02
  -2.19193101e-02  5.09689655e-03 -3.58904749e-01 -3.82246985e-03
   3.39317322e-02  1.90392397e-02  2.85922438e-02  1.19548790e-01
   1.98491320e-01 -3.30881983e-01 -5.10979407e-02  8.97519663e-03
  -3.98733951e-02  2.19705388e-01  7.86410086e-03 -1.97588891e-01
  -4.30859020e-03 -1.88312903e-02 -5.79806194e-02 -8.08402374e-02
  -6.72306493e-02 -3.96560878e-01  3.42608690e-01 -1.92702860e-01
   2.48985887e-01 -7.44162593e-04 -6.26837015e-02  8.44922736e-02
  -1.75750837e-01 -1.42414644e-01 -2.07256064e-01  3.70437115e-01
   2.90707260e-01  1.10573478e-01  1.44516870e-01  6.81741238e-02
  -1.41452491e-01 -1.38560697e-01 -2.06875112e-02 -2.22565144e-01
  -1.62628368e-01  2.41898999e-01 -6.35956079e-02  1.11715548e-01
   2.27485031e-01  6.67028315e-03 -3.40621650e-01 -2.60373801e-02
  -5.27644828e-02  2.72646576e-01 -1.89006666e-03 -2.42934003e-01
  -1.97416216e-01 -3.12583655e-01 -4.65448387e-03 -1.28170207e-01
   1.22464232e-01 -5.37912995e-02  4.00366873e-01 -3.34688306e-01
  -1.41406178e-01  3.31544876e-02 -1.98045686e-01 -1.10065967e-01
   3.40350986e-01 -8.39451700e-02 -7.66589567e-02 -2.45591104e-01
   3.81394148e-01  9.15645137e-02 -2.91079849e-01  4.26379234e-01]
 [-4.00271043e-02 -2.61587556e-02  3.46237444e-03  5.79220317e-02
  -1.60916120e-01 -7.24328011e-02  2.09374517e-01  2.13082924e-01
   1.04660057e-02  5.75225726e-02  1.31004065e-01  5.32906912e-02
   1.02477342e-01 -2.01265186e-01 -7.54792150e-03  7.03299865e-02
   3.13823335e-02  2.56970921e-03 -1.30912930e-01  1.02691993e-01
   3.07752103e-01  7.91232064e-02 -4.82221991e-02 -4.00145240e-02
  -4.83048894e-02  2.77937986e-02  2.07452223e-01 -1.01533264e-01
   1.94220454e-01  8.38532299e-02 -1.64541870e-01  1.10955551e-01
   1.03598207e-01  1.05969034e-01 -1.20826609e-01 -1.57595888e-01
  -8.22615996e-02  1.00542732e-01  1.95069492e-01 -2.15713438e-02
   3.19807261e-01 -6.81795850e-02  2.95454520e-03  7.30055496e-02
   3.00299171e-02  3.09385687e-01  2.14902416e-01  2.44206086e-01
   1.67244151e-01 -2.32342303e-01  7.19502345e-02 -1.49369597e-01
  -1.48590475e-01  7.65231699e-02  7.02280998e-02  5.24125546e-02
  -7.92768523e-02 -1.00531261e-02 -2.26607069e-01  1.24409616e-01
   1.88517362e-01  1.65612280e-01  1.11081377e-02 -7.53408447e-02
   3.46662961e-02 -2.05210403e-01 -1.26996636e-01  2.66397834e-01
   8.83488283e-02  2.56777376e-01  3.16425599e-02 -5.36245890e-02
   2.81475093e-02  1.66414291e-01 -2.07520828e-01  2.19800726e-01
  -9.18245986e-02 -1.06753632e-01  1.74593866e-01 -3.93534899e-01
   1.14667088e-01 -1.39190881e-02  8.47588703e-02 -2.66961735e-02
   2.14554638e-01  3.31074633e-02 -1.30200520e-01  3.50213766e-01
   3.22251141e-01 -6.20404305e-03  2.81844556e-01  2.05538392e-01
  -1.29298061e-01 -5.30580319e-02 -6.66925982e-02 -7.69936219e-02
  -1.16110601e-01  1.37679681e-01 -1.77891418e-01  2.65925620e-02
   2.21945390e-01  2.04005897e-01 -5.65239266e-02 -7.34391809e-02
   6.05410486e-02  2.56963193e-01  4.72862050e-02 -1.93635657e-01
   9.26209092e-02 -8.96721333e-02 -7.48972520e-02  2.78881304e-02
   7.31589869e-02  2.86347754e-02  4.06493992e-01 -1.51213929e-01
  -2.13918567e-01  1.64604470e-01  1.27958328e-01  5.85151557e-03
   9.67639685e-02  2.09839210e-01  4.18343693e-02 -1.56273320e-01
   2.82727808e-01 -1.38011456e-01 -1.58678070e-01  3.66131753e-01]
 [ 6.59233108e-02  6.05125353e-02 -7.47674257e-02  6.40619770e-02
  -1.91234022e-01 -1.67992562e-01  1.05398104e-01  1.51543349e-01
  -8.35803598e-02  1.06643036e-01  3.47932011e-01  1.32727055e-02
   1.20012283e-01 -1.90042511e-01  2.34820340e-02  9.33919623e-02
   4.15916257e-02  1.23371743e-01 -3.83619331e-02  2.47479472e-02
   1.51566610e-01 -5.96814938e-02 -5.99001981e-02 -5.12824208e-02
  -3.23301367e-02  3.27157490e-02  2.94329941e-01 -1.71627238e-01
   6.71517029e-02 -2.19923444e-02 -3.74514773e-03  1.65380284e-01
   3.89705449e-02 -4.45445701e-02 -1.63369656e-01 -2.83864047e-02
  -1.55550659e-01  4.59527504e-03  1.30870163e-01 -1.09161571e-01
   1.26843765e-01 -6.59026876e-02 -1.67210400e-03  1.18862726e-01
  -9.46972985e-03  5.50911725e-01  1.47795215e-01  1.12083375e-01
   1.34893507e-01 -9.40016136e-02  1.22759528e-01 -5.74090704e-02
   6.87067658e-02  1.43304035e-01 -1.20441783e-02  2.63729822e-02
  -1.14034392e-01  5.11735529e-02 -2.38713652e-01  4.33416851e-03
   9.26908329e-02  3.06583028e-02 -2.60443054e-02 -1.07098751e-01
   1.15372747e-01 -1.24673069e-01 -5.87080941e-02  2.95730114e-01
   2.81652004e-01  2.58735955e-01 -6.26390753e-03  2.58008726e-02
  -8.13564062e-02  2.56094962e-01 -1.50277033e-01  1.61358595e-01
  -4.03492525e-02 -1.55276477e-01  1.94530323e-01 -1.62953630e-01
   7.84704089e-03 -2.13293470e-02  1.31267205e-01 -1.02749141e-02
   4.06137645e-01 -4.28956151e-02 -1.37402654e-01  4.63236690e-01
  -2.99454853e-03  3.51219587e-02  1.66502371e-01  1.42817169e-01
   8.10799003e-02  4.00127955e-02 -3.49605493e-02  6.28335699e-02
  -1.64060861e-01  1.43830478e-01 -1.31233975e-01  7.91381225e-02
   8.44247192e-02  1.79901868e-01  2.82179080e-02 -4.46701497e-02
  -3.24361399e-02  8.12241361e-02 -5.07133603e-02  8.67192373e-02
   5.61945289e-02 -6.47073388e-02 -6.36529997e-02 -7.04902038e-02
  -4.44026366e-02 -2.36547552e-02  6.73555210e-02 -5.88166304e-02
   4.81479838e-02  1.30608872e-01  1.68824464e-01  2.41964459e-01
  -4.27769646e-02  1.03416666e-01 -7.09756017e-02 -1.79151207e-01
   1.46117628e-01  1.06341772e-01 -3.54135111e-02  4.59271789e-01]
 [ 1.45485103e-02  1.64194927e-02 -7.61748105e-02 -7.44555295e-02
   7.55548924e-02 -8.28030258e-02 -6.39208034e-02 -1.12341039e-01
  -3.16233225e-02  4.68496531e-02  1.85803786e-01  1.84340015e-01
   1.19758889e-01 -3.41718525e-01  4.04961333e-02  1.75587133e-01
   2.55966038e-01  1.97344154e-01  2.25199200e-02  2.35556692e-01
  -9.08340365e-02 -1.44736618e-01 -1.87785417e-01  1.04431219e-01
  -2.13595591e-02  4.82462421e-02  3.28207105e-01 -2.08798677e-01
  -7.25428015e-03 -1.11161590e-01 -6.82509467e-02  4.81966510e-02
  -4.14602784e-03 -8.04087892e-02  1.67060181e-01 -1.79950461e-01
  -1.91107109e-01  1.47318244e-02  8.42812583e-02 -9.06842947e-02
  -5.84294684e-02 -6.82250634e-02 -3.21904384e-02  4.28283550e-02
   9.70692560e-02  3.71407837e-01  2.17555881e-01  1.45149156e-01
   7.28044957e-02  2.20985755e-01 -6.00369945e-02 -2.43244991e-01
   8.19740370e-02  2.11396441e-01  1.82704434e-01  6.46215305e-02
  -8.02444965e-02  2.68784076e-01 -2.59797961e-01  2.89550990e-01
   2.37855181e-01  1.45693392e-01 -1.58353150e-01 -3.22531536e-02
   2.93206304e-01 -2.44559735e-01 -1.64648116e-01  1.36554614e-01
   3.14032167e-01  4.21969257e-02  4.06919234e-02 -7.51104504e-02
  -7.68654943e-02 -4.34344411e-02 -8.87307674e-02  1.46808535e-01
   6.06534891e-02 -1.94609582e-01  1.84526950e-01 -6.80346340e-02
   6.81734234e-02 -1.40684377e-03 -4.64017801e-02  2.89214194e-01
   1.59719825e-01 -2.27899738e-02 -9.37046260e-02  2.85901606e-01
  -1.13611080e-01  1.12921782e-01  2.24786401e-01 -7.21066967e-02
  -1.09961055e-01 -5.69060370e-02 -6.38009012e-02 -2.65694648e-01
  -2.31260449e-01  2.08222777e-01 -5.72675988e-02 -1.29840627e-01
  -5.98158576e-02  7.61550665e-02  3.97005044e-02 -1.48599902e-02
  -1.05989233e-01  2.42667764e-01 -7.42982924e-02  5.23279272e-02
   4.03737137e-03 -2.41775572e-01 -2.65352309e-01  5.74212559e-02
   2.81135701e-02 -1.52928293e-01 -7.89553672e-02 -5.55614792e-02
  -5.87457940e-02  2.16204822e-01  1.80827841e-01  8.24823696e-03
   5.94665930e-02 -1.26352698e-01 -4.89088893e-03 -1.26331262e-02
   1.79346383e-01  9.93374735e-02  1.33756503e-01  4.01639163e-01]
 [-8.15544948e-02  1.65506825e-02 -3.21480557e-02 -1.80790186e-01
   1.74760148e-01 -4.66350317e-02 -8.48896429e-02 -1.08859599e-01
  -3.92692201e-02  4.83291335e-02  2.35668451e-01  1.85943186e-01
  -1.25792427e-02 -3.60686868e-01 -1.88291576e-02  9.50921923e-02
   1.97447479e-01  1.47574246e-01 -3.68835442e-02  2.94164866e-01
   2.41084453e-02 -8.26757252e-02 -1.90128371e-01  8.30767229e-02
  -7.43518770e-03 -5.81501462e-02  2.81107306e-01 -3.09696347e-01
   1.21485312e-02  2.85893138e-02 -1.90536752e-01  1.72814772e-01
  -5.99768162e-02 -2.60377452e-02  5.35565838e-02 -2.94606894e-01
  -2.04981908e-01 -7.24127442e-02  8.96837935e-02 -2.28317350e-01
